{"learner":{"attributes":{"scikit_learn":"{\"_estimator_type\": \"classifier\"}"},"feature_names":["elo_diff","home_elo","away_elo","home_xg_last_5","away_xg_last_5","home_points_last_5","away_points_last_5"],"feature_types":["float","float","float","float","float","float","float"],"gradient_booster":{"model":{"gbtree_model_param":{"num_parallel_tree":"1","num_trees":"900"},"iteration_indptr":[0,3,6,9,12,15,18,21,24,27,30,33,36,39,42,45,48,51,54,57,60,63,66,69,72,75,78,81,84,87,90,93,96,99,102,105,108,111,114,117,120,123,126,129,132,135,138,141,144,147,150,153,156,159,162,165,168,171,174,177,180,183,186,189,192,195,198,201,204,207,210,213,216,219,222,225,228,231,234,237,240,243,246,249,252,255,258,261,264,267,270,273,276,279,282,285,288,291,294,297,300,303,306,309,312,315,318,321,324,327,330,333,336,339,342,345,348,351,354,357,360,363,366,369,372,375,378,381,384,387,390,393,396,399,402,405,408,411,414,417,420,423,426,429,432,435,438,441,444,447,450,453,456,459,462,465,468,471,474,477,480,483,486,489,492,495,498,501,504,507,510,513,516,519,522,525,528,531,534,537,540,543,546,549,552,555,558,561,564,567,570,573,576,579,582,585,588,591,594,597,600,603,606,609,612,615,618,621,624,627,630,633,636,639,642,645,648,651,654,657,660,663,666,669,672,675,678,681,684,687,690,693,696,699,702,705,708,711,714,717,720,723,726,729,732,735,738,741,744,747,750,753,756,759,762,765,768,771,774,777,780,783,786,789,792,795,798,801,804,807,810,813,816,819,822,825,828,831,834,837,840,843,846,849,852,855,858,861,864,867,870,873,876,879,882,885,888,891,894,897,900],"tree_info":[0,1,2,0,1,2,0,1,2,0,1,2,0,1,2,0,1,2,0,1,2,0,1,2,0,1,2,0,1,2,0,1,2,0,1,2,0,1,2,0,1,2,0,1,2,0,1,2,0,1,2,0,1,2,0,1,2,0,1,2,0,1,2,0,1,2,0,1,2,0,1,2,0,1,2,0,1,2,0,1,2,0,1,2,0,1,2,0,1,2,0,1,2,0,1,2,0,1,2,0,1,2,0,1,2,0,1,2,0,1,2,0,1,2,0,1,2,0,1,2,0,1,2,0,1,2,0,1,2,0,1,2,0,1,2,0,1,2,0,1,2,0,1,2,0,1,2,0,1,2,0,1,2,0,1,2,0,1,2,0,1,2,0,1,2,0,1,2,0,1,2,0,1,2,0,1,2,0,1,2,0,1,2,0,1,2,0,1,2,0,1,2,0,1,2,0,1,2,0,1,2,0,1,2,0,1,2,0,1,2,0,1,2,0,1,2,0,1,2,0,1,2,0,1,2,0,1,2,0,1,2,0,1,2,0,1,2,0,1,2,0,1,2,0,1,2,0,1,2,0,1,2,0,1,2,0,1,2,0,1,2,0,1,2,0,1,2,0,1,2,0,1,2,0,1,2,0,1,2,0,1,2,0,1,2,0,1,2,0,1,2,0,1,2,0,1,2,0,1,2,0,1,2,0,1,2,0,1,2,0,1,2,0,1,2,0,1,2,0,1,2,0,1,2,0,1,2,0,1,2,0,1,2,0,1,2,0,1,2,0,1,2,0,1,2,0,1,2,0,1,2,0,1,2,0,1,2,0,1,2,0,1,2,0,1,2,0,1,2,0,1,2,0,1,2,0,1,2,0,1,2,0,1,2,0,1,2,0,1,2,0,1,2,0,1,2,0,1,2,0,1,2,0,1,2,0,1,2,0,1,2,0,1,2,0,1,2,0,1,2,0,1,2,0,1,2,0,1,2,0,1,2,0,1,2,0,1,2,0,1,2,0,1,2,0,1,2,0,1,2,0,1,2,0,1,2,0,1,2,0,1,2,0,1,2,0,1,2,0,1,2,0,1,2,0,1,2,0,1,2,0,1,2,0,1,2,0,1,2,0,1,2,0,1,2,0,1,2,0,1,2,0,1,2,0,1,2,0,1,2,0,1,2,0,1,2,0,1,2,0,1,2,0,1,2,0,1,2,0,1,2,0,1,2,0,1,2,0,1,2,0,1,2,0,1,2,0,1,2,0,1,2,0,1,2,0,1,2,0,1,2,0,1,2,0,1,2,0,1,2,0,1,2,0,1,2,0,1,2,0,1,2,0,1,2,0,1,2,0,1,2,0,1,2,0,1,2,0,1,2,0,1,2,0,1,2,0,1,2,0,1,2,0,1,2,0,1,2,0,1,2,0,1,2,0,1,2,0,1,2,0,1,2,0,1,2,0,1,2,0,1,2,0,1,2,0,1,2,0,1,2,0,1,2,0,1,2,0,1,2,0,1,2,0,1,2,0,1,2,0,1,2,0,1,2,0,1,2,0,1,2,0,1,2,0,1,2,0,1,2,0,1,2,0,1,2,0,1,2,0,1,2,0,1,2,0,1,2,0,1,2,0,1,2,0,1,2,0,1,2,0,1,2,0,1,2,0,1,2,0,1,2,0,1,2,0,1,2,0,1,2,0,1,2,0,1,2,0,1,2,0,1,2,0,1,2,0,1,2,0,1,2,0,1,2,0,1,2,0,1,2,0,1,2,0,1,2,0,1,2,0,1,2,0,1,2,0,1,2,0,1,2,0,1,2,0,1,2,0,1,2,0,1,2,0,1,2,0,1,2,0,1,2,0,1,2,0,1,2,0,1,2,0,1,2,0,1,2,0,1,2,0,1,2,0,1,2,0,1,2,0,1,2,0,1,2,0,1,2,0,1,2,0,1,2,0,1,2,0,1,2,0,1,2,0,1,2,0,1,2,0,1,2,0,1,2,0,1,2,0,1,2,0,1,2,0,1,2,0,1,2,0,1,2,0,1,2,0,1,2],"trees":[{"base_weights":[-1.20225875E-2,4.7387603E-1,-2.2914033E-1,7.7101094E-1,3.2407963E-1,-1.0466119E-1,-4.4182628E-1,8.34464E-1,1.9354835E-1,4.736842E-2,3.0018643E-1,-2.1902318E-1,3.8436856E-2,-3.0573255E-1,-5.2339417E-1,3.7128713E-2,4.9792532E-2,4.285714E-2,-1.9868216E-9,-2.1428574E-2,1.6061185E-2,-5.713023E-3,-1.8000003E-2,7.881971E-3,-2.0270273E-2,-2.6000002E-2,-1.0808438E-2,-2.0792082E-2,-2.9411769E-2],"categories":[],"categories_nodes":[],"categories_segments":[],"categories_sizes":[],"default_left":[0,0,0,0,0,0,0,0,0,0,0,0,0,0,0,0,0,0,0,0,0,0,0,0,0,0,0,0,0],"id":0,"left_children":[1,3,5,7,9,11,13,15,17,-1,19,21,23,25,27,-1,-1,-1,-1,-1,-1,-1,-1,-1,-1,-1,-1,-1,-1],"loss_changes":[9.3708046E1,1.1960636E1,1.620644E1,3.181038E0,2.4574623E0,6.367122E0,2.3524857E0,4.748993E-1,1.327189E0,0E0,2.8785229E0,3.1506367E0,9.2403555E0,1.5614386E0,7.3249817E-1,0E0,0E0,0E0,0E0,0E0,0E0,0E0,0E0,0E0,0E0,0E0,0E0,0E0,0E0],"parents":[2147483647,0,0,1,1,2,2,3,3,4,4,5,5,6,6,7,7,8,8,10,10,11,11,12,12,13,13,14,14],"right_children":[2,4,6,8,10,12,14,16,18,-1,20,22,24,26,28,-1,-1,-1,-1,-1,-1,-1,-1,-1,-1,-1,-1,-1,-1],"split_conditions":[-5.6585495E1,-1.5442683E2,7.3192116E1,1.5137362E3,1.4595406E3,1.3984174E0,1.2005383E2,1.3065978E0,1.076707E0,4.736842E-2,1.360125E3,1.155873E0,1.92252E0,8.296119E1,2E0,3.7128713E-2,4.9792532E-2,4.285714E-2,-1.9868216E-9,-2.1428574E-2,1.6061185E-2,-5.713023E-3,-1.8000003E-2,7.881971E-3,-2.0270273E-2,-2.6000002E-2,-1.0808438E-2,-2.0792082E-2,-2.9411769E-2],"split_indices":[0,0,0,1,2,4,0,3,3,0,1,4,3,0,5,0,0,0,0,0,0,0,0,0,0,0,0,0,0],"split_type":[0,0,0,0,0,0,0,0,0,0,0,0,0,0,0,0,0,0,0,0,0,0,0,0,0,0,0,0,0],"sum_hessian":[8.8622217E2,2.733333E2,6.1288885E2,9.022221E1,1.831111E2,3.8755554E2,2.2533331E2,8.0888885E1,9.333333E0,5.333333E0,1.7777777E2,2.151111E2,1.7244443E2,8.622221E1,1.391111E2,5.5111107E1,2.5777777E1,1.3333333E0,7.9999995E0,4.444444E0,1.7333333E2,1.24444435E2,9.0666664E1,1.3644444E2,3.5999996E1,2.3999998E1,6.2222218E1,5.5111107E1,8.399999E1],"tree_param":{"num_deleted":"0","num_feature":"7","num_nodes":"29","size_leaf_vector":"1"}},{"base_weights":[-2.3406392E-1,-1.8903324E-1,-3.9271492E-1,-2.027227E-1,3.825503E-1,-2.9742616E-1,-5.271967E-1,-1.1762555E-1,-2.709506E-1,-2.5862072E-2,5.581395E-1,-3.2195127E-1,5.454545E-1,-6.1224528E-2,-5.5391437E-1,-7.7139437E-3,1.2650601E-2,-1.2299117E-2,-2.4480715E-2,-2.4000002E-2,3.716814E-2,1.3636363E-2,-1.693307E-2,4.285714E-2,-1.2772424E-9,-2.727273E-2,3E-2,-3.0967746E-2,-1.9683262E-2],"categories":[],"categories_nodes":[],"categories_segments":[],"categories_sizes":[],"default_left":[0,0,0,0,0,0,0,0,0,0,0,0,0,0,0,0,0,0,0,0,0,0,0,0,0,0,0,0,0],"id":1,"left_children":[1,3,5,7,9,11,13,15,17,-1,19,21,23,25,27,-1,-1,-1,-1,-1,-1,-1,-1,-1,-1,-1,-1,-1,-1],"loss_changes":[6.264225E0,5.5000477E0,2.3448925E0,3.901373E0,2.904367E0,2.5850153E0,9.5791245E-1,4.1583385E0,1.9281425E0,0E0,3.112936E0,1.2240934E0,6.233767E-1,2.070501E0,5.4502296E-1,0E0,0E0,0E0,0E0,0E0,0E0,0E0,0E0,0E0,0E0,0E0,0E0,0E0,0E0],"parents":[2147483647,0,0,1,1,2,2,3,3,4,4,5,5,6,6,7,7,8,8,10,10,11,11,12,12,13,13,14,14],"right_children":[2,4,6,8,10,12,14,16,18,-1,20,22,24,26,28,-1,-1,-1,-1,-1,-1,-1,-1,-1,-1,-1,-1,-1,-1],"split_conditions":[8.632109E1,1.6269122E3,1.6374594E3,1.5056512E3,-4.9808353E1,1.633498E3,1.558713E0,1.4991387E3,1.393726E1,-2.5862072E-2,1.5802351E3,1.4674832E3,1.3627428E0,1.6691809E3,1.524892E3,-7.7139437E-3,1.2650601E-2,-1.2299117E-2,-2.4480715E-2,-2.4000002E-2,3.716814E-2,1.3636363E-2,-1.693307E-2,4.285714E-2,-1.2772424E-9,-2.727273E-2,3E-2,-3.0967746E-2,-1.9683262E-2],"split_indices":[0,1,1,2,0,1,3,2,0,0,2,1,4,1,2,0,0,0,0,0,0,0,0,0,0,0,0,0,0],"split_type":[0,0,0,0,0,0,0,0,0,0,0,0,0,0,0,0,0,0,0,0,0,0,0,0,0,0,0,0,0],"sum_hessian":[8.8622217E2,6.9199994E2,1.9422221E2,6.764444E2,1.5555554E1,1.1555555E2,7.8666664E1,3.022222E2,3.742222E2,2.222222E0,1.3333332E1,1.12888885E2,2.6666665E0,4.444444E0,7.422222E1,2.7555554E2,2.6666664E1,3.3777777E2,3.6444443E1,1.7777777E0,1.1555555E1,2.6666665E0,1.1022221E2,1.3333333E0,1.3333333E0,2.6666665E0,1.7777777E0,5.0666664E1,2.3555553E1],"tree_param":{"num_deleted":"0","num_feature":"7","num_nodes":"29","size_leaf_vector":"1"}},{"base_weights":[2.4608637E-1,-8.503825E-2,5.8674115E-1,-3.034073E-1,9.742892E-2,3.927505E-1,8.6758274E-1,-4.348356E-1,-1.9672136E-1,3.867125E-2,6.602871E-1,4.108155E-1,-3.4426233E-1,7.064622E-1,1.0674318E0,-2.3166027E-2,2.8301869E-3,-5.8303913E-3,-2.6649749E-2,9.327983E-3,-5.247816E-3,-6.0000014E-3,3.6528494E-2,1.7216232E-2,2.7517242E-2,-2.837838E-2,-1.6255813E-9,-1.7881394E-9,3.677309E-2,2.4489796E-2,5.479452E-2],"categories":[],"categories_nodes":[],"categories_segments":[],"categories_sizes":[],"default_left":[0,0,0,0,0,0,0,0,0,0,0,0,0,0,0,0,0,0,0,0,0,0,0,0,0,0,0,0,0,0,0],"id":2,"left_children":[1,3,5,7,9,11,13,15,17,19,21,23,25,27,29,-1,-1,-1,-1,-1,-1,-1,-1,-1,-1,-1,-1,-1,-1,-1,-1],"loss_changes":[1.0012782E2,1.7990883E1,2.34915E1,2.7951088E0,8.121258E0,3.6105003E0,4.973892E0,1.3032074E0,3.041944E0,4.7798905E0,1.3611946E0,2.174183E0,5.210457E-1,2.0783043E0,7.363281E-1,0E0,0E0,0E0,0E0,0E0,0E0,0E0,0E0,0E0,0E0,0E0,0E0,0E0,0E0,0E0,0E0],"parents":[2147483647,0,0,1,1,2,2,3,3,4,4,5,5,6,6,7,7,8,8,9,9,10,10,11,11,12,12,13,13,14,14],"right_children":[2,4,6,8,10,12,14,16,18,20,22,24,26,28,30,-1,-1,-1,-1,-1,-1,-1,-1,-1,-1,-1,-1,-1,-1,-1,-1],"split_conditions":[-1.4477291E0,-8.429267E1,9.773327E1,-1.5442683E2,1.8964581E0,2.5E0,1.6374594E3,1.5417689E3,-9.4307434E1,1.3898263E0,1.4674832E3,1.5407336E3,1.9142275E0,9.466694E-1,1.558713E0,-2.3166027E-2,2.8301869E-3,-5.8303913E-3,-2.6649749E-2,9.327983E-3,-5.247816E-3,-6.0000014E-3,3.6528494E-2,1.7216232E-2,2.7517242E-2,-2.837838E-2,-1.6255813E-9,-1.7881394E-9,3.677309E-2,2.4489796E-2,5.479452E-2],"split_indices":[0,0,0,0,3,6,1,1,0,4,1,1,3,3,3,0,0,0,0,0,0,0,0,0,0,0,0,0,0,0,0],"split_type":[0,0,0,0,0,0,0,0,0,0,0,0,0,0,0,0,0,0,0,0,0,0,0,0,0,0,0,0,0,0,0],"sum_hessian":[8.8622217E2,4.4977774E2,4.3644443E2,2.0444443E2,2.4533331E2,2.5955554E2,1.7688889E2,9.022221E1,1.1422221E2,2.231111E2,2.2222221E1,2.5377776E2,5.7777777E0,1.00444435E2,7.644444E1,8.533333E1,4.8888884E0,9.333333E1,2.0888887E1,1.0977777E2,1.1333333E2,1.7777777E0,2.0444443E1,1.7422221E2,7.955555E1,3.111111E0,2.6666665E0,3.9999998E0,9.6444435E1,4.444444E0,7.199999E1],"tree_param":{"num_deleted":"0","num_feature":"7","num_nodes":"31","size_leaf_vector":"1"}},{"base_weights":[-1.1560238E-2,4.5184985E-1,-2.2210486E-1,7.3111624E-1,3.097282E-1,-1.01214156E-1,-4.304301E-1,7.9035157E-1,1.8488325E-1,4.559513E-2,2.8653133E-1,-2.1284746E-1,3.7733603E-2,-2.964728E-1,-5.111344E-1,5.13663E-2,3.628167E-2,-2.3339174E-3,3.545601E-2,-2.1185858E-2,1.5340387E-2,-5.5003176E-3,-1.759179E-2,7.615571E-3,-1.9730918E-2,-2.5480643E-2,-1.0391747E-2,-2.0227673E-2,-2.8782556E-2],"categories":[],"categories_nodes":[],"categories_segments":[],"categories_sizes":[],"default_left":[0,0,0,0,0,0,0,0,0,0,0,0,0,0,0,0,0,0,0,0,0,0,0,0,0,0,0,0,0],"id":3,"left_children":[1,3,5,7,9,11,13,15,17,-1,19,21,23,25,27,-1,-1,-1,-1,-1,-1,-1,-1,-1,-1,-1,-1,-1,-1],"loss_changes":[8.662106E1,1.0781815E1,1.5329382E1,2.8568535E0,2.330553E0,6.0197163E0,2.2683868E0,5.339737E-1,1.2938015E0,0E0,2.7240124E0,3.0352955E0,8.6554985E0,1.5289521E0,7.18132E-1,0E0,0E0,0E0,0E0,0E0,0E0,0E0,0E0,0E0,0E0,0E0,0E0,0E0,0E0],"parents":[2147483647,0,0,1,1,2,2,3,3,4,4,5,5,6,6,7,7,8,8,10,10,11,11,12,12,13,13,14,14],"right_children":[2,4,6,8,10,12,14,16,18,-1,20,22,24,26,28,-1,-1,-1,-1,-1,-1,-1,-1,-1,-1,-1,-1,-1,-1],"split_conditions":[-5.6585495E1,-1.5442683E2,7.3192116E1,1.5137362E3,1.4595406E3,1.3984174E0,1.2005383E2,-2.7760907E2,2.63881E0,4.559513E-2,1.360125E3,1.155873E0,1.92252E0,8.296119E1,2E0,5.13663E-2,3.628167E-2,-2.3339174E-3,3.545601E-2,-2.1185858E-2,1.5340387E-2,-5.5003176E-3,-1.759179E-2,7.615571E-3,-1.9730918E-2,-2.5480643E-2,-1.0391747E-2,-2.0227673E-2,-2.8782556E-2],"split_indices":[0,0,0,1,2,4,0,0,4,0,1,4,3,0,5,0,0,0,0,0,0,0,0,0,0,0,0,0,0],"split_type":[0,0,0,0,0,0,0,0,0,0,0,0,0,0,0,0,0,0,0,0,0,0,0,0,0,0,0,0,0],"sum_hessian":[8.8576874E2,2.7635764E2,6.094111E2,9.180948E1,1.8454817E2,3.865707E2,2.2284036E2,8.24242E1,9.385274E0,5.4243526E0,1.7912381E2,2.1405942E2,1.725113E2,8.553628E1,1.3730408E2,1.4490689E1,6.793351E1,7.1416726E0,2.243601E0,4.4194846E0,1.7470433E2,1.240575E2,9.000191E1,1.3688347E2,3.5627842E1,2.3728636E1,6.180764E1,5.4515495E1,8.278859E1],"tree_param":{"num_deleted":"0","num_feature":"7","num_nodes":"29","size_leaf_vector":"1"}},{"base_weights":[-2.2664098E-1,-1.828556E-1,-3.8173884E-1,-1.9629487E-1,3.725194E-1,-2.882459E-1,-5.144636E-1,-1.253132E-1,-2.744568E-1,-2.5366578E-2,5.4086703E-1,-3.126145E-1,5.384029E-1,-5.974129E-2,-5.408726E-1,-4.7412235E-3,-1.8996334E-2,-3.7043411E-3,-1.4972629E-2,-2.3690736E-2,3.594805E-2,1.349084E-2,-1.645866E-2,4.2377748E-2,-1.01838166E-4,-2.695976E-2,2.9309643E-2,-3.032353E-2,-1.9052828E-2],"categories":[],"categories_nodes":[],"categories_segments":[],"categories_sizes":[],"default_left":[0,0,0,0,0,0,0,0,0,0,0,0,0,0,0,0,0,0,0,0,0,0,0,0,0,0,0,0,0],"id":4,"left_children":[1,3,5,7,9,11,13,15,17,-1,19,21,23,25,27,-1,-1,-1,-1,-1,-1,-1,-1,-1,-1,-1,-1,-1,-1],"loss_changes":[5.919426E0,5.2208595E0,2.2496395E0,3.7052822E0,2.7391717E0,2.4980564E0,9.114704E-1,2.720488E0,1.5803032E0,0E0,2.9522114E0,1.1783705E0,6.164104E-1,2.0001905E0,5.4629135E-1,0E0,0E0,0E0,0E0,0E0,0E0,0E0,0E0,0E0,0E0,0E0,0E0,0E0,0E0],"parents":[2147483647,0,0,1,1,2,2,3,3,4,4,5,5,6,6,7,7,8,8,10,10,11,11,12,12,13,13,14,14],"right_children":[2,4,6,8,10,12,14,16,18,-1,20,22,24,26,28,-1,-1,-1,-1,-1,-1,-1,-1,-1,-1,-1,-1,-1,-1],"split_conditions":[8.632109E1,1.6269122E3,1.6374594E3,1.5252128E0,-4.9808353E1,1.633498E3,1.558713E0,1.5417689E3,8.800008E-1,-2.5366578E-2,1.5802351E3,1.4674832E3,2.2E0,1.6691809E3,1.524892E3,-4.7412235E-3,-1.8996334E-2,-3.7043411E-3,-1.4972629E-2,-2.3690736E-2,3.594805E-2,1.349084E-2,-1.645866E-2,4.2377748E-2,-1.01838166E-4,-2.695976E-2,2.9309643E-2,-3.032353E-2,-1.9052828E-2],"split_indices":[0,1,1,4,0,1,3,1,3,0,2,1,5,1,2,0,0,0,0,0,0,0,0,0,0,0,0,0,0],"split_type":[0,0,0,0,0,0,0,0,0,0,0,0,0,0,0,0,0,0,0,0,0,0,0,0,0,0,0,0,0],"sum_hessian":[8.8093475E2,6.886908E2,1.9224399E2,6.730505E2,1.5640285E1,1.1465286E2,7.7591125E1,3.540909E2,3.1895956E2,2.1885362E0,1.3451748E1,1.1197384E2,2.679025E0,4.437978E0,7.3153145E1,3.1745023E2,3.6640697E1,3.5816086E1,2.8314346E2,1.7605615E0,1.1691187E1,2.6726367E0,1.093012E2,1.3426875E0,1.3363374E0,2.6420934E0,1.7958845E0,4.9883274E1,2.3269873E1],"tree_param":{"num_deleted":"0","num_feature":"7","num_nodes":"29","size_leaf_vector":"1"}},{"base_weights":[2.3546922E-1,-8.240519E-2,5.5737835E-1,-2.9476225E-1,9.328752E-2,4.0588933E-1,8.724219E-1,-4.2266926E-1,-1.9172467E-1,3.636763E-2,6.325243E-1,4.1622332E-1,-2.7303828E-2,7.276482E-1,9.9814004E-1,-2.2531634E-2,2.6374187E-3,-5.6580985E-3,-2.6194528E-2,8.904844E-3,-5.111446E-3,3.1511725E-3,3.658829E-2,1.7861852E-2,3.4352522E-2,4.1996904E-2,7.832297E-3,2.3432031E-2,5.12862E-2],"categories":[],"categories_nodes":[],"categories_segments":[],"categories_sizes":[],"default_left":[0,0,0,0,0,0,0,0,0,0,0,0,0,0,0,0,0,0,0,0,0,0,0,0,0,0,0,0,0],"id":5,"left_children":[1,3,5,7,9,11,13,15,17,19,21,23,-1,25,27,-1,-1,-1,-1,-1,-1,-1,-1,-1,-1,-1,-1,-1,-1],"loss_changes":[9.136273E1,1.6812613E1,2.0813034E1,2.6066113E0,7.556916E0,3.1920586E0,1.8790512E0,1.2223186E0,2.935884E0,4.4269004E0,1.2830715E0,4.5263557E0,0E0,4.370823E0,5.990372E-1,0E0,0E0,0E0,0E0,0E0,0E0,0E0,0E0,0E0,0E0,0E0,0E0,0E0,0E0],"parents":[2147483647,0,0,1,1,2,2,3,3,4,4,5,5,6,6,7,7,8,8,9,9,10,10,11,11,13,13,14,14],"right_children":[2,4,6,8,10,12,14,16,18,20,22,24,-1,26,28,-1,-1,-1,-1,-1,-1,-1,-1,-1,-1,-1,-1,-1,-1],"split_conditions":[-1.4477291E0,-8.429267E1,1.2005383E2,-1.5442683E2,1.8964581E0,1.677694E3,1.6374594E3,1.5417689E3,-9.4307434E1,1.3898263E0,1.4899645E3,1.991762E0,-2.7303828E-2,1.5252128E0,1.558713E0,-2.2531634E-2,2.6374187E-3,-5.6580985E-3,-2.6194528E-2,8.904844E-3,-5.111446E-3,3.1511725E-3,3.658829E-2,1.7861852E-2,3.4352522E-2,4.1996904E-2,7.832297E-3,2.3432031E-2,5.12862E-2],"split_indices":[0,0,0,0,3,2,1,1,0,4,1,3,0,4,3,0,0,0,0,0,0,0,0,0,0,0,0,0,0],"split_type":[0,0,0,0,0,0,0,0,0,0,0,0,0,0,0,0,0,0,0,0,0,0,0,0,0,0,0,0,0],"sum_hessian":[8.914046E2,4.4888742E2,4.4251718E2,2.029306E2,2.4595683E2,3.0037155E2,1.4214561E2,8.915493E1,1.1377567E2,2.2343887E2,2.2517958E1,2.9770264E2,2.6689086E0,6.922074E1,7.292487E1,8.42515E1,4.903426E0,9.3097305E1,2.0678366E1,1.1033005E2,1.1310882E2,3.5843096E0,1.8933647E1,2.463636E2,5.1339046E1,5.745166E1,1.1769081E1,4.501613E0,6.8423256E1],"tree_param":{"num_deleted":"0","num_feature":"7","num_nodes":"29","size_leaf_vector":"1"}},{"base_weights":[-1.11248465E-2,4.3128908E-1,-2.152966E-1,6.944513E-1,2.9627806E-1,-9.768622E-2,-4.1966295E-1,7.5015324E-1,1.7553186E-1,4.3954905E-2,2.7373508E-1,-2.0630372E-1,3.6734886E-2,-2.887401E-1,-4.9906346E-1,4.883838E-2,3.4417793E-2,4.0666897E-2,-5.4877746E-4,-2.0962011E-2,1.4665902E-2,-5.2646706E-3,-1.717122E-2,7.331777E-3,-1.9190313E-2,-2.4985505E-2,-1.0077362E-2,-1.966226E-2,-2.816996E-2],"categories":[],"categories_nodes":[],"categories_segments":[],"categories_sizes":[],"default_left":[0,0,0,0,0,0,0,0,0,0,0,0,0,0,0,0,0,0,0,0,0,0,0,0,0,0,0,0,0],"id":6,"left_children":[1,3,5,7,9,11,13,15,17,-1,19,21,23,25,27,-1,-1,-1,-1,-1,-1,-1,-1,-1,-1,-1,-1,-1,-1],"loss_changes":[8.01238E1,9.746296E0,1.4546099E1,2.5920982E0,2.214573E0,5.650875E0,2.1572304E0,5.150833E-1,1.2508323E0,0E0,2.5841846E0,2.9268532E0,8.079114E0,1.4803009E0,7.072716E-1,0E0,0E0,0E0,0E0,0E0,0E0,0E0,0E0,0E0,0E0,0E0,0E0,0E0,0E0],"parents":[2147483647,0,0,1,1,2,2,3,3,4,4,5,5,6,6,7,7,8,8,10,10,11,11,12,12,13,13,14,14],"right_children":[2,4,6,8,10,12,14,16,18,-1,20,22,24,26,28,-1,-1,-1,-1,-1,-1,-1,-1,-1,-1,-1,-1,-1,-1],"split_conditions":[-5.6585495E1,-1.5442683E2,7.3192116E1,1.5137362E3,1.4595406E3,1.3984174E0,1.2005383E2,-2.7760907E2,1.076707E0,4.3954905E-2,1.360125E3,1.155873E0,1.92252E0,8.296119E1,2E0,4.883838E-2,3.4417793E-2,4.0666897E-2,-5.4877746E-4,-2.0962011E-2,1.4665902E-2,-5.2646706E-3,-1.717122E-2,7.331777E-3,-1.9190313E-2,-2.4985505E-2,-1.0077362E-2,-1.966226E-2,-2.816996E-2],"split_indices":[0,0,0,1,2,4,0,0,3,0,1,4,3,0,5,0,0,0,0,0,0,0,0,0,0,0,0,0,0],"split_type":[0,0,0,0,0,0,0,0,0,0,0,0,0,0,0,0,0,0,0,0,0,0,0,0,0,0,0,0,0],"sum_hessian":[8.849995E2,2.7910422E2,6.058953E2,9.323255E1,1.8587166E2,3.855144E2,2.2038092E2,8.379247E1,9.44008E0,5.506689E0,1.8036497E2,2.1292664E2,1.7258777E2,8.494777E1,1.3543315E2,1.4781596E1,6.901088E1,1.3754649E0,8.064614E0,4.39602E0,1.7596895E2,1.23625496E2,8.930114E1,1.3734619E2,3.524157E1,2.3458061E1,6.1489704E1,5.38969E1,8.153625E1],"tree_param":{"num_deleted":"0","num_feature":"7","num_nodes":"29","size_leaf_vector":"1"}},{"base_weights":[-2.1941039E-1,-1.767426E-1,-3.7135056E-1,-1.8992794E-1,3.6284304E-1,-2.796091E-1,-5.0241154E-1,-1.0800556E-1,-2.5597808E-1,-2.4889033E-2,5.2432525E-1,-3.0384192E-1,5.324801E-1,-5.819703E-2,-5.285393E-1,-7.200867E-3,1.265585E-2,-9.72487E-3,-1.7221624E-2,-2.3389079E-2,3.4786317E-2,1.3346548E-2,-1.6012732E-2,4.162735E-2,4.0244933E-5,-2.665154E-2,2.865325E-2,-2.970397E-2,-1.8489942E-2],"categories":[],"categories_nodes":[],"categories_segments":[],"categories_sizes":[],"default_left":[0,0,0,0,0,0,0,0,0,0,0,0,0,0,0,0,0,0,0,0,0,0,0,0,0,0,0,0,0],"id":7,"left_children":[1,3,5,7,9,11,13,15,17,-1,19,21,23,25,27,-1,-1,-1,-1,-1,-1,-1,-1,-1,-1,-1,-1,-1,-1],"loss_changes":[5.617588E0,4.9520073E0,2.159607E0,3.6011295E0,2.5839903E0,2.4206142E0,8.6888313E-1,3.9518723E0,1.948164E0,0E0,2.8015742E0,1.1355667E0,5.878942E-1,1.9329642E0,5.4065895E-1,0E0,0E0,0E0,0E0,0E0,0E0,0E0,0E0,0E0,0E0,0E0,0E0,0E0,0E0],"parents":[2147483647,0,0,1,1,2,2,3,3,4,4,5,5,6,6,7,7,8,8,10,10,11,11,12,12,13,13,14,14],"right_children":[2,4,6,8,10,12,14,16,18,-1,20,22,24,26,28,-1,-1,-1,-1,-1,-1,-1,-1,-1,-1,-1,-1,-1,-1],"split_conditions":[8.632109E1,1.6269122E3,1.6374594E3,1.5056512E3,-4.9808353E1,1.633498E3,1.558713E0,1.4991387E3,-6.606869E1,-2.4889033E-2,1.5802351E3,1.4674832E3,2.2E0,1.6691809E3,1.524892E3,-7.200867E-3,1.265585E-2,-9.72487E-3,-1.7221624E-2,-2.3389079E-2,3.4786317E-2,1.3346548E-2,-1.6012732E-2,4.162735E-2,4.0244933E-5,-2.665154E-2,2.865325E-2,-2.970397E-2,-1.8489942E-2],"split_indices":[0,1,1,2,0,1,3,2,0,0,2,1,5,1,2,0,0,0,0,0,0,0,0,0,0,0,0,0,0],"split_type":[0,0,0,0,0,0,0,0,0,0,0,0,0,0,0,0,0,0,0,0,0,0,0,0,0,0,0,0,0],"sum_hessian":[8.756418E2,6.853464E2,1.9029544E2,6.696312E2,1.5715125E1,1.13782295E2,7.651314E1,3.0007797E2,3.6955325E2,2.153803E0,1.3561322E1,1.1109312E2,2.6891763E0,4.429634E0,7.20835E1,2.7341385E2,2.666412E1,2.1990558E2,1.4964767E2,1.7430434E0,1.1818279E1,2.6785786E0,1.0841454E2,1.3572676E0,1.3319087E0,2.6168537E0,1.8127804E0,4.9077953E1,2.3005554E1],"tree_param":{"num_deleted":"0","num_feature":"7","num_nodes":"29","size_leaf_vector":"1"}},{"base_weights":[2.2544694E-1,-7.985437E-2,5.3022766E-1,-2.863294E-1,8.929716E-2,3.577337E-1,7.7515495E-1,-4.1093746E-1,-1.8672808E-1,3.4142233E-2,6.066428E-1,3.744776E-1,-3.3940464E-1,6.3509756E-1,9.4653356E-1,-2.1920683E-2,2.4715175E-3,-5.484492E-3,-2.5746172E-2,8.533821E-3,-5.007099E-3,-6.2568435E-3,3.359027E-2,1.5677532E-2,2.5078444E-2,-2.8091548E-2,6.873055E-5,-1.206681E-3,3.310331E-2,2.2438625E-2,4.8515547E-2],"categories":[],"categories_nodes":[],"categories_segments":[],"categories_sizes":[],"default_left":[0,0,0,0,0,0,0,0,0,0,0,0,0,0,0,0,0,0,0,0,0,0,0,0,0,0,0,0,0,0,0],"id":8,"left_children":[1,3,5,7,9,11,13,15,17,19,21,23,25,27,29,-1,-1,-1,-1,-1,-1,-1,-1,-1,-1,-1,-1,-1,-1,-1,-1],"loss_changes":[8.3497826E1,1.5704741E1,1.8690498E1,2.4352741E0,7.042389E0,3.2237701E0,3.8314514E0,1.1484547E0,2.833932E0,4.137631E0,1.2183733E0,1.8524437E0,5.121712E-1,1.8766785E0,5.233307E-1,0E0,0E0,0E0,0E0,0E0,0E0,0E0,0E0,0E0,0E0,0E0,0E0,0E0,0E0,0E0,0E0],"parents":[2147483647,0,0,1,1,2,2,3,3,4,4,5,5,6,6,7,7,8,8,9,9,10,10,11,11,12,12,13,13,14,14],"right_children":[2,4,6,8,10,12,14,16,18,20,22,24,26,28,30,-1,-1,-1,-1,-1,-1,-1,-1,-1,-1,-1,-1,-1,-1,-1,-1],"split_conditions":[-1.4477291E0,-8.429267E1,9.773327E1,-1.5442683E2,1.8964581E0,2.5E0,1.6374594E3,1.5417689E3,-9.4307434E1,1.3898263E0,1.4674832E3,1.5407336E3,1.9142275E0,9.466694E-1,1.558713E0,-2.1920683E-2,2.4715175E-3,-5.484492E-3,-2.5746172E-2,8.533821E-3,-5.007099E-3,-6.2568435E-3,3.359027E-2,1.5677532E-2,2.5078444E-2,-2.8091548E-2,6.873055E-5,-1.206681E-3,3.310331E-2,2.2438625E-2,4.8515547E-2],"split_indices":[0,0,0,0,3,6,1,1,0,4,1,1,3,3,3,0,0,0,0,0,0,0,0,0,0,0,0,0,0,0,0],"split_type":[0,0,0,0,0,0,0,0,0,0,0,0,0,0,0,0,0,0,0,0,0,0,0,0,0,0,0,0,0,0,0],"sum_hessian":[8.9588916E2,4.47931E2,4.4795813E2,2.013996E2,2.4653142E2,2.6428897E2,1.8366916E2,8.807986E1,1.1331974E2,2.2374377E2,2.2787638E1,2.585421E2,5.7468405E0,1.03659935E2,8.0009224E1,8.3164055E1,4.9157996E0,9.28573E1,2.0462437E1,1.10808075E2,1.1293571E2,1.787992E0,2.0999645E1,1.7710564E2,8.143648E1,3.0847569E0,2.6620834E0,4.078109E0,9.9581825E1,4.5537624E0,7.545546E1],"tree_param":{"num_deleted":"0","num_feature":"7","num_nodes":"31","size_leaf_vector":"1"}},{"base_weights":[-1.068657E-2,4.1228402E-1,-2.0874746E-1,6.614997E-1,2.8360447E-1,-9.465566E-2,-4.088226E-1,7.139471E-1,1.6812688E-1,4.242646E-2,2.6168028E-1,-2.005757E-1,3.5769857E-2,-2.7983198E-1,-4.875108E-1,3.2315608E-2,4.5789346E-2,-1.1111823E-2,2.2574889E-2,3.9201784E-3,1.6837375E-2,-5.070248E-3,-1.678992E-2,7.066379E-3,-1.8682322E-2,-2.4492232E-2,-9.67647E-3,-1.912434E-2,-2.7583424E-2],"categories":[],"categories_nodes":[],"categories_segments":[],"categories_sizes":[],"default_left":[0,0,0,0,0,0,0,0,0,0,0,0,0,0,0,0,0,0,0,0,0,0,0,0,0,0,0,0,0],"id":9,"left_children":[1,3,5,7,9,11,13,15,17,-1,19,21,23,25,27,-1,-1,-1,-1,-1,-1,-1,-1,-1,-1,-1,-1,-1,-1],"loss_changes":[7.422043E1,8.873844E0,1.373444E1,2.3502655E0,2.1076107E0,5.3334904E0,2.0845833E0,5.8193207E-1,1.2597566E0,0E0,2.4846354E0,2.8211937E0,7.556927E0,1.4504337E0,6.956806E-1,0E0,0E0,0E0,0E0,0E0,0E0,0E0,0E0,0E0,0E0,0E0,0E0,0E0,0E0],"parents":[2147483647,0,0,1,1,2,2,3,3,4,4,5,5,6,6,7,7,8,8,10,10,11,11,12,12,13,13,14,14],"right_children":[2,4,6,8,10,12,14,16,18,-1,20,22,24,26,28,-1,-1,-1,-1,-1,-1,-1,-1,-1,-1,-1,-1,-1,-1],"split_conditions":[-5.6585495E1,-1.5442683E2,7.3192116E1,1.5137362E3,1.4595406E3,1.3984174E0,1.2005383E2,-1.7448994E2,-2.1398293E2,4.242646E-2,1.3848394E0,1.155873E0,1.92252E0,8.296119E1,2E0,3.2315608E-2,4.5789346E-2,-1.1111823E-2,2.2574889E-2,3.9201784E-3,1.6837375E-2,-5.070248E-3,-1.678992E-2,7.066379E-3,-1.8682322E-2,-2.4492232E-2,-9.67647E-3,-1.912434E-2,-2.7583424E-2],"split_indices":[0,0,0,1,2,4,0,0,0,0,4,4,3,0,5,0,0,0,0,0,0,0,0,0,0,0,0,0,0],"split_type":[0,0,0,0,0,0,0,0,0,0,0,0,0,0,0,0,0,0,0,0,0,0,0,0,0,0,0,0,0],"sum_hessian":[8.8393353E2,2.8156134E2,6.0237225E2,9.446631E1,1.8709502E2,3.845549E2,2.1781732E2,8.4985E1,9.481309E0,5.581164E0,1.8151385E2,2.1191695E2,1.7263797E2,8.425594E1,1.3356137E2,6.680222E1,1.8182781E1,4.078554E0,5.4027553E0,5.333669E1,1.2817717E2,1.2326545E2,8.865149E1,1.3777177E2,3.486619E1,2.3177902E1,6.1078045E1,5.3289627E1,8.027174E1],"tree_param":{"num_deleted":"0","num_feature":"7","num_nodes":"29","size_leaf_vector":"1"}},{"base_weights":[-2.1234548E-1,-1.7088859E-1,-3.6085212E-1,-1.8382493E-1,3.537858E-1,-2.7077514E-1,-4.9041057E-1,-3.2237064E-2,-2.1890023E-1,-2.4441283E-2,5.089447E-1,-2.9485568E-1,5.2597207E-1,-5.6601E-2,-5.162653E-1,-1.3847186E-2,2.4574862E-3,-8.989315E-3,-1.6314877E-2,-2.3093387E-2,3.3707272E-2,1.3202134E-2,-1.555595E-2,4.1160446E-2,-3.5838857E-5,-2.6348189E-2,2.8028166E-2,-2.9104808E-2,-1.7888652E-2],"categories":[],"categories_nodes":[],"categories_segments":[],"categories_sizes":[],"default_left":[0,0,0,0,0,0,0,0,0,0,0,0,0,0,0,0,0,0,0,0,0,0,0,0,0,0,0,0,0],"id":10,"left_children":[1,3,5,7,9,11,13,15,17,-1,19,21,23,25,27,-1,-1,-1,-1,-1,-1,-1,-1,-1,-1,-1,-1,-1,-1],"loss_changes":[5.302761E0,4.701288E0,2.075861E0,3.5409317E0,2.4423745E0,2.3398209E0,8.2751274E-1,2.534199E0,2.2170048E0,0E0,2.6623945E0,1.0926409E0,5.7980347E-1,1.8686408E0,5.4260063E-1,0E0,0E0,0E0,0E0,0E0,0E0,0E0,0E0,0E0,0E0,0E0,0E0,0E0,0E0],"parents":[2147483647,0,0,1,1,2,2,3,3,4,4,5,5,6,6,7,7,8,8,10,10,11,11,12,12,13,13,14,14],"right_children":[2,4,6,8,10,12,14,16,18,-1,20,22,24,26,28,-1,-1,-1,-1,-1,-1,-1,-1,-1,-1,-1,-1,-1,-1],"split_conditions":[8.632109E1,1.6269122E3,1.6374594E3,1.4679729E3,-4.9808353E1,1.633498E3,1.558713E0,9.209136E-1,1.5233348E3,-2.4441283E-2,1.5802351E3,1.4674832E3,1.3627428E0,1.6691809E3,1.524892E3,-1.3847186E-2,2.4574862E-3,-8.989315E-3,-1.6314877E-2,-2.3093387E-2,3.3707272E-2,1.3202134E-2,-1.555595E-2,4.1160446E-2,-3.5838857E-5,-2.6348189E-2,2.8028166E-2,-2.9104808E-2,-1.7888652E-2],"split_indices":[0,1,1,2,0,1,3,4,1,0,2,1,4,1,2,0,0,0,0,0,0,0,0,0,0,0,0,0,0],"split_type":[0,0,0,0,0,0,0,0,0,0,0,0,0,0,0,0,0,0,0,0,0,0,0,0,0,0,0,0,0],"sum_hessian":[8.703263E2,6.820711E2,1.8825523E2,6.6629266E2,1.577843E1,1.1287063E2,7.5384605E1,1.25561646E2,5.40731E2,2.1192217E0,1.3659208E1,1.101708E2,2.6998303E0,4.41954E0,7.0965065E1,3.0738129E1,9.482352E1,3.9833276E2,1.4239825E2,1.7251952E0,1.1934013E1,2.6843982E0,1.074864E2,1.3659612E0,1.3338691E0,2.5910003E0,1.8285396E0,4.8250977E1,2.2714092E1],"tree_param":{"num_deleted":"0","num_feature":"7","num_nodes":"29","size_leaf_vector":"1"}},{"base_weights":[2.1591105E-1,-7.747836E-2,5.050299E-1,-2.778531E-1,8.500139E-2,3.4221885E-1,7.3447454E-1,-3.9925152E-1,-1.8160868E-1,3.267503E-2,5.9288853E-1,3.626567E-1,-1.9937307E-1,6.0285527E-1,8.948944E-1,-2.1312146E-2,2.310314E-3,-5.301298E-3,-2.5305463E-2,8.378777E-3,-5.0406638E-3,2.4117813E-3,3.4584235E-2,1.566553E-2,3.131991E-2,-3.091678E-2,1.1144503E-2,-1.4596008E-3,3.142599E-2,2.150415E-2,4.5842316E-2],"categories":[],"categories_nodes":[],"categories_segments":[],"categories_sizes":[],"default_left":[0,0,0,0,0,0,0,0,0,0,0,0,0,0,0,0,0,0,0,0,0,0,0,0,0,0,0,0,0,0,0],"id":11,"left_children":[1,3,5,7,9,11,13,15,17,19,21,23,25,27,29,-1,-1,-1,-1,-1,-1,-1,-1,-1,-1,-1,-1,-1,-1,-1,-1],"loss_changes":[7.6443634E1,1.4606926E1,1.6700981E1,2.2737522E0,6.5747113E0,3.03125E0,3.4191284E0,1.0773659E0,2.7385564E0,4.086717E0,1.2105742E0,3.1608925E0,1.9717183E0,1.7386284E0,4.467926E-1,0E0,0E0,0E0,0E0,0E0,0E0,0E0,0E0,0E0,0E0,0E0,0E0,0E0,0E0,0E0,0E0],"parents":[2147483647,0,0,1,1,2,2,3,3,4,4,5,5,6,6,7,7,8,8,9,9,10,10,11,11,12,12,13,13,14,14],"right_children":[2,4,6,8,10,12,14,16,18,20,22,24,26,28,30,-1,-1,-1,-1,-1,-1,-1,-1,-1,-1,-1,-1,-1,-1,-1,-1],"split_conditions":[-1.4477291E0,-8.429267E1,9.773327E1,-1.5442683E2,1.92252E0,1.5938478E3,1.6374594E3,1.5417689E3,-9.4307434E1,1.3898263E0,1.4899645E3,1.5744235E3,1.6213689E3,9.466694E-1,1.558713E0,-2.1312146E-2,2.310314E-3,-5.301298E-3,-2.5305463E-2,8.378777E-3,-5.0406638E-3,2.4117813E-3,3.4584235E-2,1.566553E-2,3.131991E-2,-3.091678E-2,1.1144503E-2,-1.4596008E-3,3.142599E-2,2.150415E-2,4.5842316E-2],"split_indices":[0,0,0,0,3,2,1,1,0,4,1,1,2,3,3,0,0,0,0,0,0,0,0,0,0,0,0,0,0,0,0],"split_type":[0,0,0,0,0,0,0,0,0,0,0,0,0,0,0,0,0,0,0,0,0,0,0,0,0,0,0,0,0,0,0],"sum_hessian":[8.997372E2,4.4693384E2,4.5280338E2,1.99811E2,2.4712282E2,2.6631854E2,1.8648483E2,8.6966736E1,1.1284428E2,2.250054E2,2.2117414E1,2.569524E2,9.366131E0,1.0505147E2,8.1433365E1,8.2038925E1,4.9278064E0,9.260211E1,2.024216E1,1.1178374E2,1.1322167E2,3.6244457E0,1.849297E1,2.182969E2,3.8655502E1,4.46836E0,4.897771E0,4.0938406E0,1.00957634E2,4.601121E0,7.6832245E1],"tree_param":{"num_deleted":"0","num_feature":"7","num_nodes":"31","size_leaf_vector":"1"}},{"base_weights":[-1.0261658E-2,2.84127E-1,-2.7589512E-1,6.306589E-1,1.7996931E-1,-1.9532701E-1,-4.762553E-1,6.8063134E-1,1.5812151E-1,1.629383E-2,2.7406722E-1,-1.706557E-1,-4.7268453E-1,-5.671463E-1,-3.9880076E-1,2.9890547E-2,4.14963E-2,-3.2169917E-3,3.3226613E-2,-4.4465405E-3,1.2242646E-2,2.346864E-2,7.3813456E-3,-1.2001615E-2,-2.9404974E-3,-2.6607145E-2,7.087053E-3,-1.4229733E-2,-3.089703E-2,-1.502303E-2,-2.64013E-2],"categories":[],"categories_nodes":[],"categories_segments":[],"categories_sizes":[],"default_left":[0,0,0,0,0,0,0,0,0,0,0,0,0,0,0,0,0,0,0,0,0,0,0,0,0,0,0,0,0,0,0],"id":12,"left_children":[1,3,5,7,9,11,13,15,17,19,21,23,25,27,29,-1,-1,-1,-1,-1,-1,-1,-1,-1,-1,-1,-1,-1,-1,-1,-1],"loss_changes":[6.9177185E1,1.5032188E1,7.4133644E0,2.1729393E0,4.9862556E0,2.2003012E0,7.077675E-1,5.8006287E-1,1.2300701E0,2.8921828E0,5.0101013E0,2.3732862E0,1.0495319E0,6.6615486E-1,7.9439163E-1,0E0,0E0,0E0,0E0,0E0,0E0,0E0,0E0,0E0,0E0,0E0,0E0,0E0,0E0,0E0,0E0],"parents":[2147483647,0,0,1,1,2,2,3,3,4,4,5,5,6,6,7,7,8,8,9,9,10,10,11,11,12,12,13,13,14,14],"right_children":[2,4,6,8,10,12,14,16,18,20,22,24,26,28,30,-1,-1,-1,-1,-1,-1,-1,-1,-1,-1,-1,-1,-1,-1,-1,-1],"split_conditions":[-1.2860684E1,-1.5442683E2,1.2005383E2,1.5137362E3,1.3677042E0,2.2459881E0,1.1778616E0,1.3065978E0,2.63881E0,1.3243876E0,1.1880873E0,1.4024674E0,2.951188E0,1.25E0,1.4813093E3,2.9890547E-2,4.14963E-2,-3.2169917E-3,3.3226613E-2,-4.4465405E-3,1.2242646E-2,2.346864E-2,7.3813456E-3,-1.2001615E-2,-2.9404974E-3,-2.6607145E-2,7.087053E-3,-1.4229733E-2,-3.089703E-2,-1.502303E-2,-2.64013E-2],"split_indices":[0,0,0,1,4,3,4,3,4,3,3,4,3,5,2,0,0,0,0,0,0,0,0,0,0,0,0,0,0,0,0],"split_type":[0,0,0,0,0,0,0,0,0,0,0,0,0,0,0,0,0,0,0,0,0,0,0,0,0,0,0,0,0,0,0],"sum_hessian":[8.826222E2,4.186183E2,4.640039E2,9.5577545E1,3.2304074E2,3.323396E2,1.3166432E2,8.603833E1,9.539213E0,1.1835143E2,2.046893E2,3.066757E2,2.56639E1,5.7668934E1,7.3995384E1,5.855788E1,2.748045E1,7.2342334E0,2.3049796E0,8.145971E1,3.6891727E1,7.937335E1,1.2531595E2,1.8856497E2,1.1811072E2,2.3521616E1,2.1422832E0,9.793564E0,4.787537E1,4.390719E1,3.0088202E1],"tree_param":{"num_deleted":"0","num_feature":"7","num_nodes":"31","size_leaf_vector":"1"}},{"base_weights":[-2.0546985E-1,-1.6520229E-1,-3.5060912E-1,-1.7786457E-1,3.438248E-1,-2.6207477E-1,-4.7885048E-1,-2.9380554E-2,-2.1234529E-1,-2.3993235E-2,4.9256954E-1,-2.8601095E-1,5.199914E-1,-5.496508E-2,-5.044504E-1,4.28409E-4,-2.682682E-2,-8.703283E-3,-1.5891105E-2,-2.2763263E-2,3.2559857E-2,1.30602075E-2,-1.5106293E-2,4.0490597E-2,5.810754E-5,-2.6049882E-2,2.7431855E-2,-2.8526245E-2,-1.7320264E-2],"categories":[],"categories_nodes":[],"categories_segments":[],"categories_sizes":[],"default_left":[0,0,0,0,0,0,0,0,0,0,0,0,0,0,0,0,0,0,0,0,0,0,0,0,0,0,0,0,0],"id":13,"left_children":[1,3,5,7,9,11,13,15,17,-1,19,21,23,25,27,-1,-1,-1,-1,-1,-1,-1,-1,-1,-1,-1,-1,-1,-1],"loss_changes":[5.0035553E0,4.44302E0,1.9999237E0,3.3933163E0,2.2998126E0,2.2631764E0,7.887993E-1,2.4352515E0,2.119753E0,0E0,2.5155394E0,1.0510855E0,5.5681324E-1,1.8070519E0,5.4211044E-1,0E0,0E0,0E0,0E0,0E0,0E0,0E0,0E0,0E0,0E0,0E0,0E0,0E0,0E0],"parents":[2147483647,0,0,1,1,2,2,3,3,4,4,5,5,6,6,7,7,8,8,10,10,11,11,12,12,13,13,14,14],"right_children":[2,4,6,8,10,12,14,16,18,-1,20,22,24,26,28,-1,-1,-1,-1,-1,-1,-1,-1,-1,-1,-1,-1,-1,-1],"split_conditions":[8.632109E1,1.6269122E3,1.6374594E3,1.4679729E3,-4.9808353E1,1.633498E3,1.558713E0,1.7736114E0,1.5233348E3,-2.3993235E-2,1.5802351E3,1.4674832E3,2.2E0,1.6691809E3,1.524892E3,4.28409E-4,-2.682682E-2,-8.703283E-3,-1.5891105E-2,-2.2763263E-2,3.2559857E-2,1.30602075E-2,-1.5106293E-2,4.0490597E-2,5.810754E-5,-2.6049882E-2,2.7431855E-2,-2.8526245E-2,-1.7320264E-2],"split_indices":[0,1,1,2,0,1,3,4,1,0,2,1,5,1,2,0,0,0,0,0,0,0,0,0,0,0,0,0,0],"split_type":[0,0,0,0,0,0,0,0,0,0,0,0,0,0,0,0,0,0,0,0,0,0,0,0,0,0,0,0,0],"sum_hessian":[8.650383E2,6.78839E2,1.8619936E2,6.629972E2,1.5841779E1,1.1195336E2,7.4245995E1,1.252945E2,5.377027E2,2.0826716E0,1.3759108E1,1.0924409E2,2.7092776E0,4.40783E0,6.9838165E1,1.17486496E2,7.808006E0,3.9646716E2,1.4123555E2,1.7044737E0,1.2054633E1,2.690022E0,1.0655406E2,1.3784331E0,1.3308444E0,2.5645952E0,1.8432348E0,4.7408176E1,2.242999E1],"tree_param":{"num_deleted":"0","num_feature":"7","num_nodes":"29","size_leaf_vector":"1"}},{"base_weights":[2.0687726E-1,-7.5177364E-2,4.8157907E-1,-2.696334E-1,8.092821E-2,3.2759455E-1,6.9730675E-1,-3.8794017E-1,-1.766232E-1,3.0166974E-2,5.698388E-1,3.4317166E-1,-3.3352113E-1,5.7307965E-1,8.483428E-1,-2.072544E-2,2.2053756E-3,-5.118729E-3,-2.4891354E-2,7.952572E-3,-4.9106036E-3,2.2111775E-3,3.322986E-2,1.8198712E-2,1.9706276E-3,-2.7623145E-2,-8.383231E-5,-1.697983E-3,2.9879047E-2,3.6130007E-2,4.754012E-2],"categories":[],"categories_nodes":[],"categories_segments":[],"categories_sizes":[],"default_left":[0,0,0,0,0,0,0,0,0,0,0,0,0,0,0,0,0,0,0,0,0,0,0,0,0,0,0,0,0,0,0],"id":14,"left_children":[1,3,5,7,9,11,13,15,17,19,21,23,25,27,29,-1,-1,-1,-1,-1,-1,-1,-1,-1,-1,-1,-1,-1,-1,-1,-1],"loss_changes":[7.007714E1,1.3587288E1,1.4988815E1,2.123745E0,6.153858E0,2.8865814E0,3.0770493E0,1.0152702E0,2.65291E0,3.7603703E0,1.1327176E0,1.6505795E0,4.8612076E-1,1.6159515E0,3.9032745E-1,0E0,0E0,0E0,0E0,0E0,0E0,0E0,0E0,0E0,0E0,0E0,0E0,0E0,0E0,0E0,0E0],"parents":[2147483647,0,0,1,1,2,2,3,3,4,4,5,5,6,6,7,7,8,8,9,9,10,10,11,11,12,12,13,13,14,14],"right_children":[2,4,6,8,10,12,14,16,18,20,22,24,26,28,30,-1,-1,-1,-1,-1,-1,-1,-1,-1,-1,-1,-1,-1,-1,-1,-1],"split_conditions":[-1.4477291E0,-8.429267E1,9.773327E1,-1.5442683E2,1.92252E0,2.5E0,1.6374594E3,1.5417689E3,-9.4307434E1,1.3898263E0,1.4899645E3,1.6108951E3,1.9142275E0,9.466694E-1,2.1887543E0,-2.072544E-2,2.2053756E-3,-5.118729E-3,-2.4891354E-2,7.952572E-3,-4.9106036E-3,2.2111775E-3,3.322986E-2,1.8198712E-2,1.9706276E-3,-2.7623145E-2,-8.383231E-5,-1.697983E-3,2.9879047E-2,3.6130007E-2,4.754012E-2],"split_indices":[0,0,0,0,3,6,1,1,0,4,1,1,3,3,3,0,0,0,0,0,0,0,0,0,0,0,0,0,0,0,0],"split_type":[0,0,0,0,0,0,0,0,0,0,0,0,0,0,0,0,0,0,0,0,0,0,0,0,0,0,0,0,0,0,0],"sum_hessian":[9.029766E2,4.458841E2,4.570925E2,1.9822896E2,2.4765514E2,2.681838E2,1.889087E2,8.58539E1,1.1237506E2,2.2532266E2,2.2332464E1,2.624802E2,5.703594E0,1.06284256E2,8.262445E1,8.091844E1,4.9354577E0,9.2347084E1,2.0027979E1,1.1232078E2,1.1300189E2,3.635182E0,1.869728E1,2.4547115E2,1.7009056E1,3.0358198E0,2.6677744E0,4.1084228E0,1.02175835E2,4.07127E1,4.1911747E1],"tree_param":{"num_deleted":"0","num_feature":"7","num_nodes":"31","size_leaf_vector":"1"}},{"base_weights":[-9.85393E-3,2.7216992E-1,-2.6775214E-1,6.022005E-1,1.7237537E-1,-1.8896508E-1,-4.654304E-1,6.49813E-1,1.4963971E-1,1.5047031E-2,2.623705E-1,-1.6475019E-1,-4.631176E-1,-5.5664957E-1,-3.879838E-1,4.344591E-2,2.9575406E-2,-1.1536618E-2,2.1307655E-2,-4.3836E-3,1.1849831E-2,2.2583034E-2,7.0753656E-3,-1.1631827E-2,-2.7892652E-3,-2.6118865E-2,7.007764E-3,-1.3841472E-2,-3.0372147E-2,-1.4538454E-2,-2.5831679E-2],"categories":[],"categories_nodes":[],"categories_segments":[],"categories_sizes":[],"default_left":[0,0,0,0,0,0,0,0,0,0,0,0,0,0,0,0,0,0,0,0,0,0,0,0,0,0,0,0,0,0,0],"id":15,"left_children":[1,3,5,7,9,11,13,15,17,19,21,23,25,27,29,-1,-1,-1,-1,-1,-1,-1,-1,-1,-1,-1,-1,-1,-1,-1,-1],"loss_changes":[6.423527E1,1.3790459E1,7.0964394E0,2.0046349E0,4.602193E0,2.1244984E0,7.079067E-1,6.097183E-1,1.2116082E0,2.7437608E0,4.6692057E0,2.2517843E0,1.0153294E0,6.526146E-1,7.7561283E-1,0E0,0E0,0E0,0E0,0E0,0E0,0E0,0E0,0E0,0E0,0E0,0E0,0E0,0E0,0E0,0E0],"parents":[2147483647,0,0,1,1,2,2,3,3,4,4,5,5,6,6,7,7,8,8,9,9,10,10,11,11,12,12,13,13,14,14],"right_children":[2,4,6,8,10,12,14,16,18,20,22,24,26,28,30,-1,-1,-1,-1,-1,-1,-1,-1,-1,-1,-1,-1,-1,-1,-1,-1],"split_conditions":[-1.2860684E1,-1.5442683E2,1.2005383E2,1.5137362E3,1.3677042E0,2.2459881E0,1.1778616E0,-2.7760907E2,-2.1398293E2,1.3243876E0,1.1813823E0,1.4024674E0,2.951188E0,1.25E0,1.4813093E3,4.344591E-2,2.9575406E-2,-1.1536618E-2,2.1307655E-2,-4.3836E-3,1.1849831E-2,2.2583034E-2,7.0753656E-3,-1.1631827E-2,-2.7892652E-3,-2.6118865E-2,7.007764E-3,-1.3841472E-2,-3.0372147E-2,-1.4538454E-2,-2.5831679E-2],"split_indices":[0,0,0,1,4,3,4,0,0,3,3,4,3,5,2,0,0,0,0,0,0,0,0,0,0,0,0,0,0,0,0],"split_type":[0,0,0,0,0,0,0,0,0,0,0,0,0,0,0,0,0,0,0,0,0,0,0,0,0,0,0,0,0,0,0],"sum_hessian":[8.8115814E2,4.20866E2,4.6029214E2,9.6545586E1,3.243204E2,3.3051666E2,1.2977547E2,8.6960846E1,9.584736E0,1.1843721E2,2.058832E2,3.0516364E2,2.5353043E1,5.6748116E1,7.302735E1,1.5354996E1,7.160585E1,4.1043515E0,5.4803843E0,8.137949E1,3.7057713E1,7.916375E1,1.26719444E2,1.873238E2,1.1783981E2,2.320746E1,2.1455824E0,9.709376E0,4.703874E1,4.3452473E1,2.9574883E1],"tree_param":{"num_deleted":"0","num_feature":"7","num_nodes":"31","size_leaf_vector":"1"}},{"base_weights":[-1.9876067E-1,-1.596262E-1,-3.4070036E-1,-1.7200369E-1,3.336843E-1,-2.536708E-1,-4.6769306E-1,-2.6693206E-2,-2.058738E-1,-2.3576811E-2,4.7639564E-1,-2.7742592E-1,5.124983E-1,-5.006379E-2,-4.9322417E-1,-1.3436168E-2,2.6704825E-3,-8.406616E-3,-1.55078685E-2,6.1456645E-3,4.783589E-2,1.2921937E-2,-1.4669746E-2,3.994693E-2,-2.1789527E-5,-2.5669685E-2,2.703698E-2,-2.7968204E-2,-1.6808806E-2],"categories":[],"categories_nodes":[],"categories_segments":[],"categories_sizes":[],"default_left":[0,0,0,0,0,0,0,0,0,0,0,0,0,0,0,0,0,0,0,0,0,0,0,0,0,0,0,0,0],"id":16,"left_children":[1,3,5,7,9,11,13,15,17,-1,19,21,23,25,27,-1,-1,-1,-1,-1,-1,-1,-1,-1,-1,-1,-1,-1,-1],"loss_changes":[4.72707E0,4.188875E0,1.927721E0,3.246416E0,2.1668885E0,2.1815295E0,7.654667E-1,2.4580371E0,2.0562172E0,0E0,2.4045064E0,1.0113764E0,5.470312E-1,1.750953E0,5.361843E-1,0E0,0E0,0E0,0E0,0E0,0E0,0E0,0E0,0E0,0E0,0E0,0E0,0E0,0E0],"parents":[2147483647,0,0,1,1,2,2,3,3,4,4,5,5,6,6,7,7,8,8,10,10,11,11,12,12,13,13,14,14],"right_children":[2,4,6,8,10,12,14,16,18,-1,20,22,24,26,28,-1,-1,-1,-1,-1,-1,-1,-1,-1,-1,-1,-1,-1,-1],"split_conditions":[8.632109E1,1.6269122E3,1.6374594E3,1.4679729E3,-4.9808353E1,1.633498E3,1.558713E0,9.209136E-1,1.5233348E3,-2.3576811E-2,2.332238E0,1.4674832E3,1.3627428E0,1.6691809E3,1.524892E3,-1.3436168E-2,2.6704825E-3,-8.406616E-3,-1.55078685E-2,6.1456645E-3,4.783589E-2,1.2921937E-2,-1.4669746E-2,3.994693E-2,-2.1789527E-5,-2.5669685E-2,2.703698E-2,-2.7968204E-2,-1.6808806E-2],"split_indices":[0,1,1,2,0,1,3,4,1,0,4,1,4,1,2,0,0,0,0,0,0,0,0,0,0,0,0,0,0],"split_type":[0,0,0,0,0,0,0,0,0,0,0,0,0,0,0,0,0,0,0,0,0,0,0,0,0,0,0,0,0],"sum_hessian":[8.597887E2,6.756331E2,1.8415555E2,6.597314E2,1.5901761E1,1.1104954E2,7.310602E1,1.2504559E2,5.346858E2,2.0471265E0,1.3854634E1,1.08328705E2,2.720831E0,4.3823247E0,6.8723694E1,3.050879E1,9.4536804E1,3.9451733E2,1.4016844E2,8.704587E0,5.1500483E0,2.695437E0,1.0563327E2,1.3880886E0,1.3327422E0,2.5295682E0,1.8527567E0,4.65554E1,2.216829E1],"tree_param":{"num_deleted":"0","num_feature":"7","num_nodes":"29","size_leaf_vector":"1"}},{"base_weights":[1.9828422E-1,-7.265256E-2,4.5926026E-1,-2.620836E-1,7.806664E-2,2.8452262E-1,6.3116044E-1,-3.77011E-1,-1.7254479E-1,2.7606962E-2,5.407393E-1,3.1094053E-1,-1.7615192E-1,4.887089E-1,7.2129756E-1,-2.015469E-2,2.0343484E-3,-4.982823E-3,-2.4513736E-2,7.374072E-3,-4.6244734E-3,-6.4907954E-3,2.9985616E-2,1.289126E-2,4.2331975E-2,-1.3952044E-2,2.0873655E-2,3.3583067E-2,1.7128615E-2,4.888155E-2,3.3151384E-2],"categories":[],"categories_nodes":[],"categories_segments":[],"categories_sizes":[],"default_left":[0,0,0,0,0,0,0,0,0,0,0,0,0,0,0,0,0,0,0,0,0,0,0,0,0,0,0,0,0,0,0],"id":17,"left_children":[1,3,5,7,9,11,13,15,17,19,21,23,25,27,29,-1,-1,-1,-1,-1,-1,-1,-1,-1,-1,-1,-1,-1,-1,-1,-1],"loss_changes":[6.414409E1,1.2746227E1,1.3696945E1,1.9696541E0,5.7981873E0,2.8650513E0,2.6271515E0,9.5055485E-1,2.5677016E0,3.2609642E0,1.0439878E0,6.00613E0,9.2041606E-1,2.257227E0,1.4432831E0,0E0,0E0,0E0,0E0,0E0,0E0,0E0,0E0,0E0,0E0,0E0,0E0,0E0,0E0,0E0,0E0],"parents":[2147483647,0,0,1,1,2,2,3,3,4,4,5,5,6,6,7,7,8,8,9,9,10,10,11,11,12,12,13,13,14,14],"right_children":[2,4,6,8,10,12,14,16,18,20,22,24,26,28,30,-1,-1,-1,-1,-1,-1,-1,-1,-1,-1,-1,-1,-1,-1,-1,-1],"split_conditions":[-1.4477291E0,-8.429267E1,7.727262E1,-1.5442683E2,1.8964581E0,1.6108951E3,1.5980991E3,1.5417689E3,-9.4307434E1,1.3898263E0,1.4674832E3,1.5744235E3,2.696606E0,1.4258993E3,1.6130161E3,-2.015469E-2,2.0343484E-3,-4.982823E-3,-2.4513736E-2,7.374072E-3,-4.6244734E-3,-6.4907954E-3,2.9985616E-2,1.289126E-2,4.2331975E-2,-1.3952044E-2,2.0873655E-2,3.3583067E-2,1.7128615E-2,4.888155E-2,3.3151384E-2],"split_indices":[0,0,0,0,3,1,1,1,0,4,1,1,4,2,1,0,0,0,0,0,0,0,0,0,0,0,0,0,0,0,0],"split_type":[0,0,0,0,0,0,0,0,0,0,0,0,0,0,0,0,0,0,0,0,0,0,0,0,0,0,0,0,0,0,0],"sum_hessian":[9.056967E2,4.4472223E2,4.6097452E2,1.9672723E2,2.47995E2,2.299173E2,2.3105722E2,8.474383E1,1.119834E2,2.2456348E2,2.3431513E1,2.1775493E2,1.2162369E1,9.203238E1,1.3902484E2,7.9796005E1,4.947829E0,9.215612E1,1.982728E1,1.1227147E2,1.1229201E2,1.7970295E0,2.1634483E1,1.994595E2,1.8295414E1,1.08174E1,1.3449686E0,3.927137E1,5.2761005E1,2.282749E1,1.1619735E2],"tree_param":{"num_deleted":"0","num_feature":"7","num_nodes":"31","size_leaf_vector":"1"}},{"base_weights":[-9.503474E-3,3.540857E-1,-1.9613205E-1,5.756099E-1,2.4422283E-1,-1.22340396E-1,-4.548936E-1,6.2125355E-1,1.405252E-1,3.992257E-2,2.2016409E-1,3.035545E-2,-1.8693295E-1,-3.4940624E-1,-5.2017885E-1,2.7871523E-2,4.0759947E-2,3.7965212E-2,-1.874548E-3,2.3797292E-3,1.4734656E-2,4.1953973E-3,-2.3427194E-2,-3.364155E-2,-8.449559E-3,-3.243832E-2,-1.2970604E-2,-2.6477456E-2,-2.5411916E-3],"categories":[],"categories_nodes":[],"categories_segments":[],"categories_sizes":[],"default_left":[0,0,0,0,0,0,0,0,0,0,0,0,0,0,0,0,0,0,0,0,0,0,0,0,0,0,0,0,0],"id":18,"left_children":[1,3,5,7,9,11,13,15,17,-1,19,21,23,25,27,-1,-1,-1,-1,-1,-1,-1,-1,-1,-1,-1,-1,-1,-1],"loss_changes":[5.9818653E1,7.136833E0,1.1066952E1,1.8667374E0,2.5127077E0,4.489579E0,7.0586014E-1,6.4429474E-1,1.1999133E0,0E0,2.4890547E0,3.6729484E0,2.6726618E0,1.2411985E0,3.1422997E-1,0E0,0E0,0E0,0E0,0E0,0E0,0E0,0E0,0E0,0E0,0E0,0E0,0E0,0E0],"parents":[2147483647,0,0,1,1,2,2,3,3,4,4,5,5,6,6,7,7,8,8,10,10,11,11,12,12,13,13,14,14],"right_children":[2,4,6,8,10,12,14,16,18,-1,20,22,24,26,28,-1,-1,-1,-1,-1,-1,-1,-1,-1,-1,-1,-1,-1,-1],"split_conditions":[-5.253993E1,-1.5442683E2,1.2005383E2,1.5137362E3,1.4595406E3,-1.0299581E1,2E0,-1.7448994E2,1.076707E0,3.992257E-2,1.3848394E0,1.5649777E3,-7.937808E0,1.2824703E0,3.17103E0,2.7871523E-2,4.0759947E-2,3.7965212E-2,-1.874548E-3,2.3797292E-3,1.4734656E-2,4.1953973E-3,-2.3427194E-2,-3.364155E-2,-8.449559E-3,-3.243832E-2,-1.2970604E-2,-2.6477456E-2,-2.5411916E-3],"split_indices":[0,0,0,1,2,0,5,0,3,0,4,1,0,3,3,0,0,0,0,0,0,0,0,0,0,0,0,0,0],"split_type":[0,0,0,0,0,0,0,0,0,0,0,0,0,0,0,0,0,0,0,0,0,0,0,0,0,0,0,0,0],"sum_hessian":[8.795278E2,2.9802304E2,5.8150476E2,9.739642E1,2.006266E2,4.5361813E2,1.27886604E2,8.776167E1,9.63475E0,7.0076456E0,1.9361896E2,1.3500302E2,3.186151E2,5.131856E1,7.656805E1,6.894692E1,1.8814749E1,1.423017E0,8.211733E0,5.889293E1,1.3472603E2,1.2266755E2,1.2335477E1,1.0046111E1,3.08569E2,1.042649E1,4.089207E1,7.494362E1,1.6244296E0],"tree_param":{"num_deleted":"0","num_feature":"7","num_nodes":"29","size_leaf_vector":"1"}},{"base_weights":[-1.9220458E-1,-1.5422861E-1,-3.3084267E-1,-1.6637345E-1,3.2627836E-1,-2.4430862E-1,-4.5781362E-1,-1.0054161E-1,-2.397628E-1,-2.3186928E-2,4.6384242E-1,-2.67935E-1,5.0772196E-1,-4.5505878E-2,-4.8329595E-1,-3.5917747E-3,-1.7247304E-2,-2.0027978E-3,-1.3246395E-2,-2.2651013E-2,3.0784488E-2,1.2924609E-2,-1.4190902E-2,3.937903E-2,8.2144135E-5,-2.5307244E-2,2.664232E-2,-2.748513E-2,-1.633331E-2],"categories":[],"categories_nodes":[],"categories_segments":[],"categories_sizes":[],"default_left":[0,0,0,0,0,0,0,0,0,0,0,0,0,0,0,0,0,0,0,0,0,0,0,0,0,0,0,0,0],"id":19,"left_children":[1,3,5,7,9,11,13,15,17,-1,19,21,23,25,27,-1,-1,-1,-1,-1,-1,-1,-1,-1,-1,-1,-1,-1,-1],"loss_changes":[4.4535275E0,3.984518E0,1.8998795E0,3.1527214E0,2.0561502E0,2.1088037E0,7.4566746E-1,2.4191482E0,1.5483532E0,0E0,2.3572462E0,9.789171E-1,5.2662116E-1,1.6968104E0,5.3507805E-1,0E0,0E0,0E0,0E0,0E0,0E0,0E0,0E0,0E0,0E0,0E0,0E0,0E0,0E0],"parents":[2147483647,0,0,1,1,2,2,3,3,4,4,5,5,6,6,7,7,8,8,10,10,11,11,12,12,13,13,14,14],"right_children":[2,4,6,8,10,12,14,16,18,-1,20,22,24,26,28,-1,-1,-1,-1,-1,-1,-1,-1,-1,-1,-1,-1,-1,-1],"split_conditions":[8.632109E1,1.6269122E3,1.6374594E3,1.5252128E0,-4.9808353E1,1.633498E3,1.558713E0,1.5417689E3,8.800008E-1,-2.3186928E-2,1.5802351E3,1.4674832E3,2.2E0,1.6691809E3,1.524892E3,-3.5917747E-3,-1.7247304E-2,-2.0027978E-3,-1.3246395E-2,-2.2651013E-2,3.0784488E-2,1.2924609E-2,-1.4190902E-2,3.937903E-2,8.2144135E-5,-2.5307244E-2,2.664232E-2,-2.748513E-2,-1.633331E-2],"split_indices":[0,1,1,4,0,1,3,1,3,0,2,1,5,1,2,0,0,0,0,0,0,0,0,0,0,0,0,0,0],"split_type":[0,0,0,0,0,0,0,0,0,0,0,0,0,0,0,0,0,0,0,0,0,0,0,0,0,0,0,0,0],"sum_hessian":[8.545792E2,6.724838E2,1.820954E2,6.565434E2,1.5940411E1,1.100307E2,7.20647E1,3.4734103E2,3.092024E2,2.0123882E0,1.3928022E1,1.0730329E2,2.727407E0,4.356797E0,6.770789E1,3.119906E2,3.535041E1,3.489244E1,2.7430994E2,1.6971494E0,1.2230873E1,2.6953087E0,1.0460799E2,1.3980523E0,1.3293546E0,2.4946995E0,1.8620979E0,4.5786236E1,2.1921661E1],"tree_param":{"num_deleted":"0","num_feature":"7","num_nodes":"29","size_leaf_vector":"1"}},{"base_weights":[1.9013086E-1,-7.023386E-2,4.3842027E-1,-2.5471163E-1,7.524732E-2,2.7209932E-1,6.0148877E-1,-3.6635798E-1,-1.6852285E-1,2.6190449E-2,5.2235836E-1,2.972787E-1,-1.7138991E-1,5.1748E-1,7.4404746E-1,-1.9601865E-2,1.9405868E-3,-4.8480188E-3,-2.414501E-2,7.0543885E-3,-4.478696E-3,-6.390311E-3,2.8954307E-2,1.23020075E-2,4.0547557E-2,-1.3692262E-2,2.0756926E-2,2.8320625E-2,1.5720552E-2,3.8355086E-2,-9.126534E-3],"categories":[],"categories_nodes":[],"categories_segments":[],"categories_sizes":[],"default_left":[0,0,0,0,0,0,0,0,0,0,0,0,0,0,0,0,0,0,0,0,0,0,0,0,0,0,0,0,0,0,0],"id":20,"left_children":[1,3,5,7,9,11,13,15,17,19,21,23,25,27,29,-1,-1,-1,-1,-1,-1,-1,-1,-1,-1,-1,-1,-1,-1,-1,-1],"loss_changes":[5.8788845E1,1.1949604E1,1.2458466E1,1.8264818E0,5.454612E0,2.6441345E0,2.4193802E0,8.958092E-1,2.486194E0,3.0148296E0,9.81195E-1,5.5937843E0,9.015353E-1,1.3186111E0,1.9459724E0,0E0,0E0,0E0,0E0,0E0,0E0,0E0,0E0,0E0,0E0,0E0,0E0,0E0,0E0,0E0,0E0],"parents":[2147483647,0,0,1,1,2,2,3,3,4,4,5,5,6,6,7,7,8,8,9,9,10,10,11,11,12,12,13,13,14,14],"right_children":[2,4,6,8,10,12,14,16,18,20,22,24,26,28,30,-1,-1,-1,-1,-1,-1,-1,-1,-1,-1,-1,-1,-1,-1,-1,-1],"split_conditions":[-1.4477291E0,-8.429267E1,7.727262E1,-1.5442683E2,1.8964581E0,1.6108951E3,1.651025E3,1.5417689E3,-9.4307434E1,1.3898263E0,1.4674832E3,1.5744235E3,2.696606E0,1.5328054E0,2.5E0,-1.9601865E-2,1.9405868E-3,-4.8480188E-3,-2.414501E-2,7.0543885E-3,-4.478696E-3,-6.390311E-3,2.8954307E-2,1.23020075E-2,4.0547557E-2,-1.3692262E-2,2.0756926E-2,2.8320625E-2,1.5720552E-2,3.8355086E-2,-9.126534E-3],"split_indices":[0,0,0,0,3,1,1,1,0,4,1,1,4,4,6,0,0,0,0,0,0,0,0,0,0,0,0,0,0,0,0],"split_type":[0,0,0,0,0,0,0,0,0,0,0,0,0,0,0,0,0,0,0,0,0,0,0,0,0,0,0,0,0,0,0],"sum_hessian":[9.0792303E2,4.4353464E2,4.643884E2,1.9522646E2,2.4830818E2,2.3122264E2,2.3316576E2,8.3636086E1,1.1159037E2,2.2471149E2,2.3596691E1,2.1911209E2,1.2110547E1,1.4962361E2,8.3542145E1,7.868172E1,4.954364E0,9.196465E1,1.9625717E1,1.126683E2,1.1204319E2,1.7930715E0,2.180362E1,2.0058302E2,1.8529072E1,1.076348E1,1.3470664E0,1.1912855E2,3.0495064E1,8.168192E1,1.8602198E0],"tree_param":{"num_deleted":"0","num_feature":"7","num_nodes":"31","size_leaf_vector":"1"}},{"base_weights":[-9.127424E-3,2.501327E-1,-2.521835E-1,5.50491E-1,1.5846114E-1,-1.7689049E-1,-4.446614E-1,5.940528E-1,1.3358434E-1,1.1511818E-2,2.418971E-1,-1.531557E-1,-4.483847E-1,-5.372396E-1,-3.6660585E-1,4.079164E-2,2.6909828E-2,-4.0304917E-3,3.1217089E-2,-4.45239E-3,1.1398579E-2,3.346539E-2,9.551197E-3,-1.1002722E-2,-2.3150109E-3,-2.5391826E-2,7.1946094E-3,-1.2763812E-2,-2.9460523E-2,-1.346671E-2,-2.4838908E-2],"categories":[],"categories_nodes":[],"categories_segments":[],"categories_sizes":[],"default_left":[0,0,0,0,0,0,0,0,0,0,0,0,0,0,0,0,0,0,0,0,0,0,0,0,0,0,0,0,0,0,0],"id":21,"left_children":[1,3,5,7,9,11,13,15,17,19,21,23,25,27,29,-1,-1,-1,-1,-1,-1,-1,-1,-1,-1,-1,-1,-1,-1,-1,-1],"loss_changes":[5.5434536E1,1.1633633E1,6.501171E0,1.7210884E0,4.0132065E0,2.045044E0,7.208061E-1,6.692295E-1,1.1717992E0,2.6252441E0,4.413808E0,2.1570063E0,9.833822E-1,6.694546E-1,7.785673E-1,0E0,0E0,0E0,0E0,0E0,0E0,0E0,0E0,0E0,0E0,0E0,0E0,0E0,0E0,0E0,0E0],"parents":[2147483647,0,0,1,1,2,2,3,3,4,4,5,5,6,6,7,7,8,8,9,9,10,10,11,11,12,12,13,13,14,14],"right_children":[2,4,6,8,10,12,14,16,18,20,22,24,26,28,30,-1,-1,-1,-1,-1,-1,-1,-1,-1,-1,-1,-1,-1,-1,-1,-1],"split_conditions":[-1.2860684E1,-1.5442683E2,1.2005383E2,1.5137362E3,1.3677042E0,2.2459881E0,1.1778616E0,1.3956399E3,2.63881E0,1.3243876E0,1.4912894E3,1.4024674E0,2.951188E0,1.25E0,1.4813093E3,4.079164E-2,2.6909828E-2,-4.0304917E-3,3.1217089E-2,-4.45239E-3,1.1398579E-2,3.346539E-2,9.551197E-3,-1.1002722E-2,-2.3150109E-3,-2.5391826E-2,7.1946094E-3,-1.2763812E-2,-2.9460523E-2,-1.346671E-2,-2.4838908E-2],"split_indices":[0,0,0,1,4,3,4,1,4,3,2,4,3,5,2,0,0,0,0,0,0,0,0,0,0,0,0,0,0,0,0],"split_type":[0,0,0,0,0,0,0,0,0,0,0,0,0,0,0,0,0,0,0,0,0,0,0,0,0,0,0,0,0,0,0],"sum_hessian":[8.7770624E2,4.2468222E2,4.5302402E2,9.813657E1,3.2654565E2,3.2702017E2,1.2600387E2,8.846782E1,9.668751E0,1.1867338E2,2.0787227E2,3.021679E2,2.4852257E1,5.4948784E1,7.1055084E1,1.5061088E1,7.340673E1,7.3127837E0,2.3559668E0,8.1431694E1,3.7241688E1,2.081752E1,1.8705475E2,1.8517592E2,1.1699199E2,2.2714754E1,2.1375024E0,9.47187E0,4.5476913E1,4.2423237E1,2.8631844E1],"tree_param":{"num_deleted":"0","num_feature":"7","num_nodes":"31","size_leaf_vector":"1"}},{"base_weights":[-1.8584877E-1,-1.4905335E-1,-3.2110363E-1,-1.6090363E-1,3.1621656E-1,-2.3598677E-1,-4.4699332E-1,-2.0137703E-2,-1.93917E-1,-2.2809193E-2,4.483521E-1,-2.594541E-1,5.01617E-1,-4.006544E-2,-4.7246176E-1,-1.2991223E-2,2.939284E-3,-7.862361E-3,-1.4791031E-2,-2.2437725E-2,2.976506E-2,1.2837941E-2,-1.3760798E-2,3.8908597E-2,3.9771483E-5,-2.4947759E-2,2.635864E-2,-2.6971607E-2,-1.5781863E-2],"categories":[],"categories_nodes":[],"categories_segments":[],"categories_sizes":[],"default_left":[0,0,0,0,0,0,0,0,0,0,0,0,0,0,0,0,0,0,0,0,0,0,0,0,0,0,0,0,0],"id":22,"left_children":[1,3,5,7,9,11,13,15,17,-1,19,21,23,25,27,-1,-1,-1,-1,-1,-1,-1,-1,-1,-1,-1,-1,-1,-1],"loss_changes":[4.1844044E0,3.7471914E0,1.8340473E0,3.0372543E0,1.9383589E0,2.0360842E0,7.261915E-1,2.388145E0,1.9338875E0,0E0,2.2459972E0,9.4430065E-1,5.168437E-1,1.6497587E0,5.393839E-1,0E0,0E0,0E0,0E0,0E0,0E0,0E0,0E0,0E0,0E0,0E0,0E0,0E0,0E0],"parents":[2147483647,0,0,1,1,2,2,3,3,4,4,5,5,6,6,7,7,8,8,10,10,11,11,12,12,13,13,14,14],"right_children":[2,4,6,8,10,12,14,16,18,-1,20,22,24,26,28,-1,-1,-1,-1,-1,-1,-1,-1,-1,-1,-1,-1,-1,-1],"split_conditions":[8.632109E1,1.6269122E3,1.6374594E3,1.4679729E3,-4.9808353E1,1.633498E3,1.558713E0,9.209136E-1,1.5233348E3,-2.2809193E-2,1.5802351E3,1.4674832E3,1.3627428E0,1.6691809E3,1.524892E3,-1.2991223E-2,2.939284E-3,-7.862361E-3,-1.4791031E-2,-2.2437725E-2,2.976506E-2,1.2837941E-2,-1.3760798E-2,3.8908597E-2,3.9771483E-5,-2.4947759E-2,2.635864E-2,-2.6971607E-2,-1.5781863E-2],"split_indices":[0,1,1,2,0,1,3,4,1,0,2,1,4,1,2,0,0,0,0,0,0,0,0,0,0,0,0,0,0],"split_type":[0,0,0,0,0,0,0,0,0,0,0,0,0,0,0,0,0,0,0,0,0,0,0,0,0,0,0,0,0],"sum_hessian":[8.494062E2,6.69401E2,1.8000522E2,6.534129E2,1.598806E1,1.0910883E2,7.0896385E1,1.2443665E2,5.2897626E2,1.9773041E0,1.4010756E1,1.06372765E2,2.7360673E0,4.327407E0,6.656898E1,3.0256605E1,9.4180046E1,3.908668E2,1.3810948E2,1.6829205E0,1.2327835E1,2.6986945E0,1.0367407E2,1.4059227E0,1.3301446E0,2.4587126E0,1.8686944E0,4.4938663E1,2.1630318E1],"tree_param":{"num_deleted":"0","num_feature":"7","num_nodes":"29","size_leaf_vector":"1"}},{"base_weights":[1.8235493E-1,-6.789671E-2,4.1885686E-1,-2.4733521E-1,7.232897E-2,2.6033598E-1,5.739214E-1,1.8575223E-1,-2.682417E-1,2.5673745E-2,5.136729E-1,2.8434238E-1,-1.666155E-1,4.4314173E-1,6.567472E-1,3.030524E-2,-1.7956434E-2,-3.0453583E-2,-1.15783885E-2,7.0729353E-3,-4.5680823E-3,1.4301952E-3,3.0033818E-2,1.2383732E-2,4.79209E-2,-1.3412661E-2,2.0490365E-2,3.0811263E-2,1.5246089E-2,4.5489084E-2,2.9980635E-2],"categories":[],"categories_nodes":[],"categories_segments":[],"categories_sizes":[],"default_left":[0,0,0,0,0,0,0,0,0,0,0,0,0,0,0,0,0,0,0,0,0,0,0,0,0,0,0,0,0,0,0],"id":23,"left_children":[1,3,5,7,9,11,13,15,17,19,21,23,25,27,29,-1,-1,-1,-1,-1,-1,-1,-1,-1,-1,-1,-1,-1,-1,-1,-1],"loss_changes":[5.392713E1,1.1173134E1,1.13629E1,1.8127413E0,5.127049E0,2.4398365E0,2.2644653E0,2.4066224E0,2.1857138E0,3.0865657E0,9.878249E-1,5.234041E0,8.748636E-1,2.0741653E0,1.512703E0,0E0,0E0,0E0,0E0,0E0,0E0,0E0,0E0,0E0,0E0,0E0,0E0,0E0,0E0,0E0,0E0],"parents":[2147483647,0,0,1,1,2,2,3,3,4,4,5,5,6,6,7,7,8,8,9,9,10,10,11,11,12,12,13,13,14,14],"right_children":[2,4,6,8,10,12,14,16,18,20,22,24,26,28,30,-1,-1,-1,-1,-1,-1,-1,-1,-1,-1,-1,-1,-1,-1,-1,-1],"split_conditions":[-1.4477291E0,-8.429267E1,7.727262E1,1.4866772E3,1.92252E0,1.6108951E3,1.5980991E3,8.343484E-1,1.3900247E3,1.3898263E0,1.4899645E3,1.5928115E3,2.696606E0,1.4258993E3,1.6130161E3,3.030524E-2,-1.7956434E-2,-3.0453583E-2,-1.15783885E-2,7.0729353E-3,-4.5680823E-3,1.4301952E-3,3.0033818E-2,1.2383732E-2,4.79209E-2,-1.3412661E-2,2.0490365E-2,3.0811263E-2,1.5246089E-2,4.5489084E-2,2.9980635E-2],"split_indices":[0,0,0,2,3,1,1,3,1,4,1,1,4,2,1,0,0,0,0,0,0,0,0,0,0,0,0,0,0,0,0],"split_type":[0,0,0,0,0,0,0,0,0,0,0,0,0,0,0,0,0,0,0,0,0,0,0,0,0,0,0,0,0,0,0],"sum_hessian":[9.096816E2,4.4233893E2,4.6734262E2,1.937038E2,2.4863515E2,2.324205E2,2.3492213E2,8.556991E0,1.851468E2,2.2582135E2,2.2813793E1,2.20364E2,1.2056494E1,9.355372E1,1.4136842E2,4.7670507E0,3.7899404E0,1.6470469E1,1.6867635E2,1.1341219E2,1.1240916E2,3.6717143E0,1.9142078E1,2.1029216E2,1.0071853E1,1.0703775E1,1.3527184E0,4.0002716E1,5.3551E1,2.3291725E1,1.1807669E2],"tree_param":{"num_deleted":"0","num_feature":"7","num_nodes":"31","size_leaf_vector":"1"}},{"base_weights":[-8.771231E-3,3.2668138E-1,-1.8474685E-1,5.2835596E-1,2.2613533E-1,-1.15111634E-1,-4.346212E-1,5.704418E-1,1.2526962E-1,3.8281884E-2,2.027216E-1,-7.563193E-2,-3.5405275E-1,-5.2749133E-1,-3.5669214E-1,2.4619928E-2,3.5717197E-2,-1.2252204E-2,1.9810932E-2,-3.0440125E-3,1.23422025E-2,-8.856519E-3,3.4965363E-3,5.638009E-4,-2.0966223E-2,-1.2311268E-2,-2.8992673E-2,-1.2987929E-2,-2.4362585E-2],"categories":[],"categories_nodes":[],"categories_segments":[],"categories_sizes":[],"default_left":[0,0,0,0,0,0,0,0,0,0,0,0,0,0,0,0,0,0,0,0,0,0,0,0,0,0,0,0,0],"id":24,"left_children":[1,3,5,7,9,11,13,15,17,-1,19,21,23,25,27,-1,-1,-1,-1,-1,-1,-1,-1,-1,-1,-1,-1,-1,-1],"loss_changes":[5.1816887E1,6.0052223E0,9.967499E0,1.6205349E0,2.4128828E0,4.233352E0,7.1733284E-1,6.5932655E-1,1.1717441E0,0E0,2.29708E0,5.757243E0,1.5252509E0,6.671953E-1,7.734699E-1,0E0,0E0,0E0,0E0,0E0,0E0,0E0,0E0,0E0,0E0,0E0,0E0,0E0,0E0],"parents":[2147483647,0,0,1,1,2,2,3,3,4,4,5,5,6,6,7,7,8,8,10,10,11,11,12,12,13,13,14,14],"right_children":[2,4,6,8,10,12,14,16,18,-1,20,22,24,26,28,-1,-1,-1,-1,-1,-1,-1,-1,-1,-1,-1,-1,-1,-1],"split_conditions":[-5.253993E1,-1.5442683E2,1.2005383E2,1.5137362E3,1.4595406E3,1.981467E0,1.1778616E0,1.3065978E0,-2.1398293E2,3.8281884E-2,8.548752E-1,1.3984174E0,1.0487384E0,1.25E0,1.4813093E3,2.4619928E-2,3.5717197E-2,-1.2252204E-2,1.9810932E-2,-3.0440125E-3,1.23422025E-2,-8.856519E-3,3.4965363E-3,5.638009E-4,-2.0966223E-2,-1.2311268E-2,-2.8992673E-2,-1.2987929E-2,-2.4362585E-2],"split_indices":[0,0,0,1,2,3,4,3,0,0,3,4,4,5,2,0,0,0,0,0,0,0,0,0,0,0,0,0,0],"split_type":[0,0,0,0,0,0,0,0,0,0,0,0,0,0,0,0,0,0,0,0,0,0,0,0,0,0,0,0,0],"sum_hessian":[8.757614E2,3.0104312E2,5.747183E2,9.873876E1,2.0230437E2,4.5060422E2,1.24114105E2,8.902823E1,9.71053E0,7.096044E0,1.9520833E2,3.87839E2,6.276523E1,5.3996376E1,7.011773E1,6.0589912E1,2.8438316E1,4.1433306E0,5.5671997E0,2.7935118E1,1.6727321E2,2.2837794E2,1.5946104E2,9.639534E0,5.3125694E1,9.3695755E0,4.46268E1,4.195669E1,2.816104E1],"tree_param":{"num_deleted":"0","num_feature":"7","num_nodes":"29","size_leaf_vector":"1"}},{"base_weights":[-1.7967285E-1,-1.4401504E-1,-3.1164664E-1,-1.5561052E-1,3.0840293E-1,-2.2700025E-1,-4.3759134E-1,-1.1151994E-1,-2.5933298E-1,-2.242827E-2,4.3564016E-1,-2.503367E-1,4.970374E-1,-3.5672944E-2,-4.630256E-1,-3.9452813E-3,-1.9835277E-2,-2.4948873E-2,-9.361394E-3,5.012134E-3,4.445597E-2,1.2836955E-2,-1.3300735E-2,3.842495E-2,1.0183626E-4,-2.4604723E-2,2.5987407E-2,-2.6517117E-2,-1.5326648E-2],"categories":[],"categories_nodes":[],"categories_segments":[],"categories_sizes":[],"default_left":[0,0,0,0,0,0,0,0,0,0,0,0,0,0,0,0,0,0,0,0,0,0,0,0,0,0,0,0,0],"id":25,"left_children":[1,3,5,7,9,11,13,15,17,-1,19,21,23,25,27,-1,-1,-1,-1,-1,-1,-1,-1,-1,-1,-1,-1,-1,-1],"loss_changes":[3.9330902E0,3.5489807E0,1.8084393E0,2.9498281E0,1.8339605E0,1.9678516E0,7.077627E-1,4.2362127E0,3.2507744E0,0E0,2.2032106E0,9.1384697E-1,5.0120676E-1,1.599415E0,5.3852177E-1,0E0,0E0,0E0,0E0,0E0,0E0,0E0,0E0,0E0,0E0,0E0,0E0,0E0,0E0],"parents":[2147483647,0,0,1,1,2,2,3,3,4,4,5,5,6,6,7,7,8,8,10,10,11,11,12,12,13,13,14,14],"right_children":[2,4,6,8,10,12,14,16,18,-1,20,22,24,26,28,-1,-1,-1,-1,-1,-1,-1,-1,-1,-1,-1,-1,-1,-1],"split_conditions":[8.632109E1,1.6269122E3,1.6374594E3,1.7947499E0,-4.9808353E1,1.633498E3,1.558713E0,1.544664E3,1.9392878E0,-2.242827E-2,2.332238E0,1.4674832E3,2.2E0,1.6691809E3,1.524892E3,-3.9452813E-3,-1.9835277E-2,-2.4948873E-2,-9.361394E-3,5.012134E-3,4.445597E-2,1.2836955E-2,-1.3300735E-2,3.842495E-2,1.0183626E-4,-2.4604723E-2,2.5987407E-2,-2.6517117E-2,-1.5326648E-2],"split_indices":[0,1,1,4,0,1,3,1,4,0,4,1,5,1,2,0,0,0,0,0,0,0,0,0,0,0,0,0,0],"split_type":[0,0,0,0,0,0,0,0,0,0,0,0,0,0,0,0,0,0,0,0,0,0,0,0,0,0,0,0,0],"sum_hessian":[8.443165E2,6.6636383E2,1.7795268E2,6.503514E2,1.6012459E1,1.0810116E2,6.985153E1,4.578168E2,1.9253458E2,1.940785E0,1.4071674E1,1.05359566E2,2.741595E0,4.300265E0,6.555126E1,4.1197888E2,4.583792E1,4.316238E1,1.493722E2,8.790898E0,5.280777E0,2.6987176E0,1.0266084E2,1.4137591E0,1.3278359E0,2.4230888E0,1.877176E0,4.416455E1,2.1386711E1],"tree_param":{"num_deleted":"0","num_feature":"7","num_nodes":"29","size_leaf_vector":"1"}},{"base_weights":[1.7495798E-1,-6.560849E-2,4.0046903E-1,-2.4042015E-1,6.9888994E-2,2.491653E-1,5.4825896E-1,-1.4881425E-1,-3.4566593E-1,2.3445528E-2,4.8907802E-1,2.7207446E-1,-1.620484E-1,4.7014415E-1,6.8139046E-1,-9.451035E-3,1.8379694E-2,-1.8738097E-2,1.1521808E-2,6.5287896E-3,-4.2718938E-3,1.3844789E-3,2.8385876E-2,1.1193489E-2,3.7606906E-2,-1.3149983E-2,2.0272579E-2,2.5996286E-2,1.4442386E-2,3.515993E-2,-9.655402E-3],"categories":[],"categories_nodes":[],"categories_segments":[],"categories_sizes":[],"default_left":[0,0,0,0,0,0,0,0,0,0,0,0,0,0,0,0,0,0,0,0,0,0,0,0,0,0,0,0,0,0,0],"id":26,"left_children":[1,3,5,7,9,11,13,15,17,19,21,23,25,27,29,-1,-1,-1,-1,-1,-1,-1,-1,-1,-1,-1,-1,-1,-1,-1,-1],"loss_changes":[4.950544E1,1.0489909E1,1.0393211E1,1.8121271E0,4.852975E0,2.2533588E0,2.1483078E0,2.2516537E0,1.5814533E0,2.647258E0,8.867011E-1,4.9808693E0,8.515382E-1,1.2291298E0,1.7673988E0,0E0,0E0,0E0,0E0,0E0,0E0,0E0,0E0,0E0,0E0,0E0,0E0,0E0,0E0,0E0,0E0],"parents":[2147483647,0,0,1,1,2,2,3,3,4,4,5,5,6,6,7,7,8,8,9,9,10,10,11,11,12,12,13,13,14,14],"right_children":[2,4,6,8,10,12,14,16,18,20,22,24,26,28,30,-1,-1,-1,-1,-1,-1,-1,-1,-1,-1,-1,-1,-1,-1,-1,-1],"split_conditions":[-1.4477291E0,-8.429267E1,7.727262E1,1.9177834E0,1.8964581E0,1.6108951E3,1.651025E3,1.5158157E3,1.5961902E3,1.3898263E0,1.4899645E3,1.5744235E3,2.696606E0,1.6130161E3,2.5E0,-9.451035E-3,1.8379694E-2,-1.8738097E-2,1.1521808E-2,6.5287896E-3,-4.2718938E-3,1.3844789E-3,2.8385876E-2,1.1193489E-2,3.7606906E-2,-1.3149983E-2,2.0272579E-2,2.5996286E-2,1.4442386E-2,3.515993E-2,-9.655402E-3],"split_indices":[0,0,0,4,3,1,1,1,1,4,1,1,4,1,6,0,0,0,0,0,0,0,0,0,0,0,0,0,0,0,0],"split_type":[0,0,0,0,0,0,0,0,0,0,0,0,0,0,0,0,0,0,0,0,0,0,0,0,0,0,0,0,0,0,0],"sum_hessian":[9.110517E2,4.4115436E2,4.698973E2,1.9229335E2,2.4886102E2,2.3351566E2,2.3638165E2,1.04099304E2,8.8194046E1,2.2498956E2,2.3871473E1,2.2151326E2,1.2002386E1,1.5182805E2,8.4553604E1,9.716798E1,6.931326E0,8.428664E1,3.9074073E0,1.1330735E2,1.11682205E2,3.6730864E0,2.0198387E1,2.0263261E2,1.8880646E1,1.0645286E1,1.3571006E0,1.1765401E2,3.4174038E1,8.268744E1,1.8661667E0],"tree_param":{"num_deleted":"0","num_feature":"7","num_nodes":"31","size_leaf_vector":"1"}},{"base_weights":[-8.426431E-3,2.3099317E-1,-2.3795006E-1,5.070776E-1,1.4623943E-1,-1.6622262E-1,-4.2501083E-1,5.479392E-1,1.1618714E-1,9.534821E-3,2.2327843E-1,-1.5032221E-1,-5.723878E-1,-3.17957E-1,-4.921475E-1,2.4326814E-2,3.6876805E-2,3.62272E-2,-2.8190135E-3,-4.4389446E-3,1.1012207E-2,1.999804E-2,5.495181E-3,-1.0320571E-2,-1.9355359E-3,-3.2474764E-2,2.4090598E-3,-3.13981E-2,-1.1284835E-2,-3.057453E-2,-2.1060443E-2],"categories":[],"categories_nodes":[],"categories_segments":[],"categories_sizes":[],"default_left":[0,0,0,0,0,0,0,0,0,0,0,0,0,0,0,0,0,0,0,0,0,0,0,0,0,0,0,0,0,0,0],"id":27,"left_children":[1,3,5,7,9,11,13,15,17,19,21,23,25,27,29,-1,-1,-1,-1,-1,-1,-1,-1,-1,-1,-1,-1,-1,-1,-1,-1],"loss_changes":[4.8119682E1,9.954937E0,5.927614E0,1.5378361E0,3.4663677E0,2.011487E0,7.2945595E-1,6.9483566E-1,1.170301E0,2.5002162E0,4.174514E0,1.9571285E0,5.997312E-1,1.297893E0,3.6833763E-1,0E0,0E0,0E0,0E0,0E0,0E0,0E0,0E0,0E0,0E0,0E0,0E0,0E0,0E0,0E0,0E0],"parents":[2147483647,0,0,1,1,2,2,3,3,4,4,5,5,6,6,7,7,8,8,9,9,10,10,11,11,12,12,13,13,14,14],"right_children":[2,4,6,8,10,12,14,16,18,20,22,24,26,28,30,-1,-1,-1,-1,-1,-1,-1,-1,-1,-1,-1,-1,-1,-1,-1,-1],"split_conditions":[-1.2860684E1,-1.5442683E2,1.2005383E2,1.5137362E3,1.3677042E0,2.332238E0,2E0,-1.7448994E2,1.076707E0,1.3243876E0,1.1813823E0,1.48018E0,2.968438E0,1.2824703E0,1.4436195E3,2.4326814E-2,3.6876805E-2,3.62272E-2,-2.8190135E-3,-4.4389446E-3,1.1012207E-2,1.999804E-2,5.495181E-3,-1.0320571E-2,-1.9355359E-3,-3.2474764E-2,2.4090598E-3,-3.13981E-2,-1.1284835E-2,-3.057453E-2,-2.1060443E-2],"split_indices":[0,0,0,1,4,4,5,0,3,3,3,4,4,3,2,0,0,0,0,0,0,0,0,0,0,0,0,0,0,0,0],"split_type":[0,0,0,0,0,0,0,0,0,0,0,0,0,0,0,0,0,0,0,0,0,0,0,0,0,0,0,0,0,0,0],"sum_hessian":[8.736601E2,4.276086E2,4.4605145E2,9.92664E1,3.283422E2,3.2378607E2,1.22265396E2,8.950794E1,9.758461E0,1.18748474E2,2.0959372E2,3.1290662E2,1.087945E1,4.9334404E1,7.293099E1,7.030507E1,1.9202871E1,1.4495845E0,8.308876E0,8.136397E1,3.7384506E1,8.093599E1,1.2865773E2,2.0768652E2,1.0522009E2,9.635589E0,1.2438607E0,9.983229E0,3.9351177E1,2.4348497E1,4.8582493E1],"tree_param":{"num_deleted":"0","num_feature":"7","num_nodes":"31","size_leaf_vector":"1"}},{"base_weights":[-1.7365584E-1,-1.3912313E-1,-3.023698E-1,-1.504605E-1,3.0039996E-1,-2.1894461E-1,-4.2749992E-1,-1.3400821E-2,-1.8278387E-1,-2.2077894E-2,4.2302E-1,-2.420605E-1,4.8885018E-1,-3.0705925E-2,-4.529269E-1,9.066287E-4,-3.0862838E-2,-7.3721306E-3,-1.4083262E-2,-2.2327105E-2,2.8218737E-2,-1.9876448E-2,-9.106622E-3,3.775145E-2,8.437102E-5,-2.4273518E-2,2.571038E-2,-2.6038978E-2,-1.4821539E-2],"categories":[],"categories_nodes":[],"categories_segments":[],"categories_sizes":[],"default_left":[0,0,0,0,0,0,0,0,0,0,0,0,0,0,0,0,0,0,0,0,0,0,0,0,0,0,0,0,0],"id":28,"left_children":[1,3,5,7,9,11,13,15,17,-1,19,21,23,25,27,-1,-1,-1,-1,-1,-1,-1,-1,-1,-1,-1,-1,-1,-1],"loss_changes":[3.6927643E0,3.3557644E0,1.7529984E0,2.86979E0,1.7370636E0,1.8883567E0,6.894207E-1,2.387577E0,1.7914829E0,0E0,2.112233E0,9.098916E-1,4.8533595E-1,1.5557806E0,5.4050636E-1,0E0,0E0,0E0,0E0,0E0,0E0,0E0,0E0,0E0,0E0,0E0,0E0,0E0,0E0],"parents":[2147483647,0,0,1,1,2,2,3,3,4,4,5,5,6,6,7,7,8,8,10,10,11,11,12,12,13,13,14,14],"right_children":[2,4,6,8,10,12,14,16,18,-1,20,22,24,26,28,-1,-1,-1,-1,-1,-1,-1,-1,-1,-1,-1,-1,-1,-1],"split_conditions":[8.632109E1,1.6269122E3,1.6374594E3,1.4679729E3,-4.9808353E1,1.633498E3,1.558713E0,2.095106E0,1.5233348E3,-2.2077894E-2,1.5802351E3,1.0869519E2,1.3627428E0,1.6691809E3,1.524892E3,9.066287E-4,-3.0862838E-2,-7.3721306E-3,-1.4083262E-2,-2.2327105E-2,2.8218737E-2,-1.9876448E-2,-9.106622E-3,3.775145E-2,8.437102E-5,-2.4273518E-2,2.571038E-2,-2.6038978E-2,-1.4821539E-2],"split_indices":[0,1,1,2,0,1,3,3,1,0,2,0,4,1,2,0,0,0,0,0,0,0,0,0,0,0,0,0,0],"split_type":[0,0,0,0,0,0,0,0,0,0,0,0,0,0,0,0,0,0,0,0,0,0,0,0,0,0,0,0,0],"sum_hessian":[8.392613E2,6.633671E2,1.7589413E2,6.473272E2,1.603995E1,1.0718369E2,6.871044E1,1.23799446E2,5.235278E2,1.9059951E0,1.4133954E1,1.0443108E2,2.7526088E0,4.2708225E0,6.443961E1,1.1857731E2,5.2221417E0,3.8751633E2,1.3601143E2,1.6744343E0,1.2459519E1,2.7487677E1,7.6943405E1,1.4244564E0,1.3281524E0,2.387441E0,1.8833816E0,4.3326584E1,2.1113033E1],"tree_param":{"num_deleted":"0","num_feature":"7","num_nodes":"29","size_leaf_vector":"1"}},{"base_weights":[1.6789164E-1,-6.354294E-2,3.8330114E-1,-2.3315607E-1,6.675487E-2,2.389679E-1,5.2415586E-1,-1.4303488E-1,-3.3718872E-1,2.2640621E-2,4.8039013E-1,2.6086977E-1,-1.5754712E-1,4.0215847E-1,6.0173815E-1,-9.124629E-3,1.7867222E-2,-1.830255E-2,1.1317852E-2,6.4951405E-3,-4.34054E-3,1.1561903E-3,2.8097657E-2,1.1309827E-2,4.4720374E-2,-1.2906198E-2,2.017223E-2,2.590084E-2,1.0850268E-2,4.2489003E-2,2.7294606E-2],"categories":[],"categories_nodes":[],"categories_segments":[],"categories_sizes":[],"default_left":[0,0,0,0,0,0,0,0,0,0,0,0,0,0,0,0,0,0,0,0,0,0,0,0,0,0,0,0,0,0,0],"id":29,"left_children":[1,3,5,7,9,11,13,15,17,19,21,23,25,27,29,-1,-1,-1,-1,-1,-1,-1,-1,-1,-1,-1,-1,-1,-1,-1,-1],"loss_changes":[4.554078E1,9.761556E0,9.491211E0,1.750124E0,4.554165E0,2.0859547E0,2.015892E0,2.128741E0,1.5190439E0,2.6776285E0,8.843713E-1,4.707568E0,8.347379E-1,1.9415407E0,1.5281525E0,0E0,0E0,0E0,0E0,0E0,0E0,0E0,0E0,0E0,0E0,0E0,0E0,0E0,0E0,0E0,0E0],"parents":[2147483647,0,0,1,1,2,2,3,3,4,4,5,5,6,6,7,7,8,8,9,9,10,10,11,11,12,12,13,13,14,14],"right_children":[2,4,6,8,10,12,14,16,18,20,22,24,26,28,30,-1,-1,-1,-1,-1,-1,-1,-1,-1,-1,-1,-1,-1,-1,-1,-1],"split_conditions":[-1.4477291E0,-8.429267E1,7.727262E1,1.9177834E0,1.92252E0,1.6108951E3,1.5980991E3,1.5158157E3,1.5961902E3,1.3898263E0,1.4899645E3,1.5928115E3,2.696606E0,1.5637611E3,1.6130161E3,-9.124629E-3,1.7867222E-2,-1.830255E-2,1.1317852E-2,6.4951405E-3,-4.34054E-3,1.1561903E-3,2.8097657E-2,1.1309827E-2,4.4720374E-2,-1.2906198E-2,2.017223E-2,2.590084E-2,1.0850268E-2,4.2489003E-2,2.7294606E-2],"split_indices":[0,0,0,4,3,1,1,1,1,4,1,1,4,1,1,0,0,0,0,0,0,0,0,0,0,0,0,0,0,0,0],"split_type":[0,0,0,0,0,0,0,0,0,0,0,0,0,0,0,0,0,0,0,0,0,0,0,0,0,0,0,0,0,0,0],"sum_hessian":[9.120088E2,4.399907E2,4.720181E2,1.9081319E2,2.491775E2,2.3446216E2,2.3755594E2,1.0351517E2,8.729801E1,2.2611685E2,2.306065E1,2.225135E2,1.1948655E1,9.4748505E1,1.4280743E2,9.653791E1,6.9772615E0,8.3378204E1,3.919806E0,1.1410616E2,1.1201069E2,3.6849933E0,1.9375658E1,2.1225397E2,1.0259535E1,1.0589929E1,1.3587259E0,5.717429E1,3.7574215E1,2.363137E1,1.19176056E2],"tree_param":{"num_deleted":"0","num_feature":"7","num_nodes":"31","size_leaf_vector":"1"}},{"base_weights":[-8.108786E-3,3.0154642E-1,-1.7384474E-1,4.872853E-1,2.087645E-1,-1.0803478E-1,-4.1550824E-1,5.2694184E-1,1.082171E-1,3.691135E-2,1.8584026E-1,-6.9914564E-2,-3.4118938E-1,-5.101087E-1,-3.3673424E-1,3.7049204E-2,2.3591695E-2,3.537185E-2,-3.0681693E-3,-3.449782E-3,1.141918E-2,-8.3401045E-3,3.3835357E-3,1.0222303E-3,-2.032776E-2,-1.1332717E-2,-2.81885E-2,-1.1953801E-2,-2.3485253E-2],"categories":[],"categories_nodes":[],"categories_segments":[],"categories_sizes":[],"default_left":[0,0,0,0,0,0,0,0,0,0,0,0,0,0,0,0,0,0,0,0,0,0,0,0,0,0,0,0,0],"id":30,"left_children":[1,3,5,7,9,11,13,15,17,-1,19,21,23,25,27,-1,-1,-1,-1,-1,-1,-1,-1,-1,-1,-1,-1,-1,-1],"loss_changes":[4.4829563E1,5.1465263E0,9.003592E0,1.456768E0,2.349083E0,3.9625955E0,7.330837E-1,7.226448E-1,1.1404195E0,0E0,2.1588912E0,5.166847E0,1.492104E0,6.818352E-1,7.862611E-1,0E0,0E0,0E0,0E0,0E0,0E0,0E0,0E0,0E0,0E0,0E0,0E0,0E0,0E0],"parents":[2147483647,0,0,1,1,2,2,3,3,4,4,5,5,6,6,7,7,8,8,10,10,11,11,12,12,13,13,14,14],"right_children":[2,4,6,8,10,12,14,16,18,-1,20,22,24,26,28,-1,-1,-1,-1,-1,-1,-1,-1,-1,-1,-1,-1,-1,-1],"split_conditions":[-5.253993E1,-1.5442683E2,1.2005383E2,1.5137362E3,1.4595406E3,1.981467E0,1.1778616E0,-2.7760907E2,1.076707E0,3.691135E-2,8.548752E-1,1.3984174E0,1.0487384E0,1.25E0,1.4813093E3,3.7049204E-2,2.3591695E-2,3.537185E-2,-3.0681693E-3,-3.449782E-3,1.141918E-2,-8.3401045E-3,3.3835357E-3,1.0222303E-3,-2.032776E-2,-1.1332717E-2,-2.81885E-2,-1.1953801E-2,-2.3485253E-2],"split_indices":[0,0,0,1,2,3,4,0,3,0,3,4,4,5,2,0,0,0,0,0,0,0,0,0,0,0,0,0,0],"split_type":[0,0,0,0,0,0,0,0,0,0,0,0,0,0,0,0,0,0,0,0,0,0,0,0,0,0,0,0,0],"sum_hessian":[8.714916E2,3.0354303E2,5.6794855E2,9.970101E1,2.0384203E2,4.4752524E2,1.204233E2,8.990538E1,9.79563E0,7.1645837E0,1.9667744E2,3.857551E2,6.1770172E1,5.2227352E1,6.8195946E1,1.5859628E1,7.404575E1,1.4610963E0,8.334535E0,2.8047894E1,1.6862955E2,2.2623096E2,1.5952412E2,9.561077E0,5.2209095E1,9.144942E0,4.308241E1,4.0932037E1,2.726391E1],"tree_param":{"num_deleted":"0","num_feature":"7","num_nodes":"29","size_leaf_vector":"1"}},{"base_weights":[-1.6783619E-1,-1.343792E-1,-2.9340518E-1,-1.4545038E-1,2.9250112E-1,-2.1074119E-1,-4.182763E-1,-1.0247182E-1,-2.4707372E-1,-2.174031E-2,4.1081047E-1,-2.3374505E-1,4.854318E-1,-2.6462706E-2,-4.436768E-1,-3.553573E-3,-1.9043371E-2,-2.4293877E-2,-8.787353E-3,4.455547E-3,4.2180512E-2,-1.3820331E-2,-1.2825294E-3,3.74771E-2,6.8270376E-5,-2.3953987E-2,2.5377585E-2,-2.560511E-2,-1.4351866E-2],"categories":[],"categories_nodes":[],"categories_segments":[],"categories_sizes":[],"default_left":[0,0,0,0,0,0,0,0,0,0,0,0,0,0,0,0,0,0,0,0,0,0,0,0,0,0,0,0,0],"id":31,"left_children":[1,3,5,7,9,11,13,15,17,-1,19,21,23,25,27,-1,-1,-1,-1,-1,-1,-1,-1,-1,-1,-1,-1,-1,-1],"loss_changes":[3.4698925E0,3.1684904E0,1.7171869E0,2.7934313E0,1.645954E0,1.8310075E0,6.7146015E-1,3.9527245E0,3.1697865E0,0E0,2.0384974E0,9.205556E-1,4.7910416E-1,1.5103617E0,5.4330826E-1,0E0,0E0,0E0,0E0,0E0,0E0,0E0,0E0,0E0,0E0,0E0,0E0,0E0,0E0],"parents":[2147483647,0,0,1,1,2,2,3,3,4,4,5,5,6,6,7,7,8,8,10,10,11,11,12,12,13,13,14,14],"right_children":[2,4,6,8,10,12,14,16,18,-1,20,22,24,26,28,-1,-1,-1,-1,-1,-1,-1,-1,-1,-1,-1,-1,-1,-1],"split_conditions":[8.632109E1,1.6269122E3,1.6374594E3,1.7947499E0,-4.9808353E1,1.633498E3,1.558713E0,1.544664E3,1.9392878E0,-2.174031E-2,2.332238E0,1.5506256E0,2.2E0,1.6691809E3,1.524892E3,-3.553573E-3,-1.9043371E-2,-2.4293877E-2,-8.787353E-3,4.455547E-3,4.2180512E-2,-1.3820331E-2,-1.2825294E-3,3.74771E-2,6.8270376E-5,-2.3953987E-2,2.5377585E-2,-2.560511E-2,-1.4351866E-2],"split_indices":[0,1,1,4,0,1,3,1,4,0,4,4,5,1,2,0,0,0,0,0,0,0,0,0,0,0,0,0,0],"split_type":[0,0,0,0,0,0,0,0,0,0,0,0,0,0,0,0,0,0,0,0,0,0,0,0,0,0,0,0,0],"sum_hessian":[8.3432166E2,6.604259E2,1.7389575E2,6.443733E2,1.605262E1,1.062479E2,6.764785E1,4.5426416E2,1.9010915E2,1.8716258E0,1.4180994E1,1.0349241E2,2.7554905E0,4.2427926E0,6.340506E1,4.0934882E2,4.491534E1,4.2386364E1,1.4772278E2,8.826305E0,5.354688E0,8.561264E1,1.7879765E1,1.4279581E0,1.3275324E0,2.352091E0,1.8907018E0,4.254895E1,2.0856108E1],"tree_param":{"num_deleted":"0","num_feature":"7","num_nodes":"29","size_leaf_vector":"1"}},{"base_weights":[1.6119136E-1,-6.131971E-2,3.669009E-1,-2.2640263E-1,6.447424E-2,2.7036625E-1,5.618019E-1,1.971552E-1,-2.4721855E-1,2.058248E-2,4.574754E-1,2.287047E-1,4.535607E-1,5.100571E-1,7.3697853E-1,2.999777E-2,-1.7067295E-2,-2.9522164E-2,-1.0544726E-2,2.1982763E-3,-2.1367427E-2,-6.6238516E-3,2.543926E-2,1.1994998E-2,-2.7644685E-2,2.4894673E-2,-2.4450334E-2,2.9953519E-2,1.9287653E-2,3.866549E-2,1.3773287E-2],"categories":[],"categories_nodes":[],"categories_segments":[],"categories_sizes":[],"default_left":[0,0,0,0,0,0,0,0,0,0,0,0,0,0,0,0,0,0,0,0,0,0,0,0,0,0,0,0,0,0,0],"id":32,"left_children":[1,3,5,7,9,11,13,15,17,19,21,23,25,27,29,-1,-1,-1,-1,-1,-1,-1,-1,-1,-1,-1,-1,-1,-1,-1,-1],"loss_changes":[4.1842552E1,9.146774E0,8.783031E0,1.727457E0,4.309099E0,2.3348713E0,1.0415497E0,2.2600703E0,2.1435986E0,2.388543E0,8.273239E-1,2.4280996E0,2.6747522E0,1.1405296E0,3.4718132E-1,0E0,0E0,0E0,0E0,0E0,0E0,0E0,0E0,0E0,0E0,0E0,0E0,0E0,0E0,0E0,0E0],"parents":[2147483647,0,0,1,1,2,2,3,3,4,4,5,5,6,6,7,7,8,8,9,9,10,10,11,11,12,12,13,13,14,14],"right_children":[2,4,6,8,10,12,14,16,18,20,22,24,26,28,30,-1,-1,-1,-1,-1,-1,-1,-1,-1,-1,-1,-1,-1,-1,-1,-1],"split_conditions":[-1.4477291E0,-8.429267E1,1.2005383E2,1.4866772E3,1.8964581E0,1.991762E0,2.413486E0,8.343484E-1,1.3900247E3,2.2E0,1.4674832E3,2.5E0,1.677694E3,1.2987072E0,1.872103E0,2.999777E-2,-1.7067295E-2,-2.9522164E-2,-1.0544726E-2,2.1982763E-3,-2.1367427E-2,-6.6238516E-3,2.543926E-2,1.1994998E-2,-2.7644685E-2,2.4894673E-2,-2.4450334E-2,2.9953519E-2,1.9287653E-2,3.866549E-2,1.3773287E-2],"split_indices":[0,0,0,2,3,3,3,3,1,5,1,6,2,4,4,0,0,0,0,0,0,0,0,0,0,0,0,0,0,0,0],"split_type":[0,0,0,0,0,0,0,0,0,0,0,0,0,0,0,0,0,0,0,0,0,0,0,0,0,0,0,0,0,0,0],"sum_hessian":[9.126473E2,4.3875665E2,4.7389066E2,1.8940083E2,2.493558E2,3.1851642E2,1.5537425E2,8.475328E0,1.809255E2,2.2525131E2,2.4104492E1,2.6133322E2,5.7183193E1,1.2296402E2,3.2410233E1,4.7832923E0,3.6920362E0,1.5855211E1,1.650703E2,2.1493315E2,1.0318166E1,1.8021163E0,2.2302376E1,2.5832614E2,3.0070724E0,5.506503E1,2.1181617E0,6.9427826E1,5.3536198E1,2.9418732E1,2.9915009E0],"tree_param":{"num_deleted":"0","num_feature":"7","num_nodes":"31","size_leaf_vector":"1"}},{"base_weights":[-7.747637E-3,2.1361583E-1,-2.2439523E-1,4.687145E-1,1.3505968E-1,-1.562266E-1,-4.059832E-1,5.070672E-1,1.0209585E-1,6.9801114E-3,2.068339E-1,-1.4060572E-1,-5.603272E-1,-2.9813448E-1,-4.7429913E-1,2.2346789E-2,3.4720596E-2,-1.2918471E-2,1.8369012E-2,-4.446824E-3,1.0583018E-2,3.0835008E-2,7.898841E-3,-9.763199E-3,-1.622209E-3,-3.1907782E-2,2.6871709E-3,-3.0714804E-2,-1.025025E-2,-2.9837692E-2,-2.0104308E-2],"categories":[],"categories_nodes":[],"categories_segments":[],"categories_sizes":[],"default_left":[0,0,0,0,0,0,0,0,0,0,0,0,0,0,0,0,0,0,0,0,0,0,0,0,0,0,0,0,0,0,0],"id":33,"left_children":[1,3,5,7,9,11,13,15,17,19,21,23,25,27,29,-1,-1,-1,-1,-1,-1,-1,-1,-1,-1,-1,-1,-1,-1,-1,-1],"loss_changes":[4.177938E1,8.571995E0,5.3863335E0,1.3690739E0,3.0401125E0,1.9520335E0,7.393284E-1,7.173519E-1,1.129782E0,2.3719196E0,4.1479235E0,1.8327446E0,5.905254E-1,1.3182564E0,3.9222145E-1,0E0,0E0,0E0,0E0,0E0,0E0,0E0,0E0,0E0,0E0,0E0,0E0,0E0,0E0,0E0,0E0],"parents":[2147483647,0,0,1,1,2,2,3,3,4,4,5,5,6,6,7,7,8,8,9,9,10,10,11,11,12,12,13,13,14,14],"right_children":[2,4,6,8,10,12,14,16,18,20,22,24,26,28,30,-1,-1,-1,-1,-1,-1,-1,-1,-1,-1,-1,-1,-1,-1,-1,-1],"split_conditions":[-1.2860684E1,-1.5442683E2,1.2005383E2,1.5137362E3,1.3677042E0,2.332238E0,2E0,-1.7448994E2,-2.1398293E2,1.3243876E0,1.4912894E3,1.48018E0,2.968438E0,1.2824703E0,1.4436195E3,2.2346789E-2,3.4720596E-2,-1.2918471E-2,1.8369012E-2,-4.446824E-3,1.0583018E-2,3.0835008E-2,7.898841E-3,-9.763199E-3,-1.622209E-3,-3.1907782E-2,2.6871709E-3,-3.0714804E-2,-1.025025E-2,-2.9837692E-2,-2.0104308E-2],"split_indices":[0,0,0,1,4,4,5,0,0,3,2,4,4,3,2,0,0,0,0,0,0,0,0,0,0,0,0,0,0,0,0],"split_type":[0,0,0,0,0,0,0,0,0,0,0,0,0,0,0,0,0,0,0,0,0,0,0,0,0,0,0,0,0,0,0],"sum_hessian":[8.6916895E2,4.2991238E2,4.3925653E2,1.0004981E2,3.2986258E2,3.2071832E2,1.185382E2,9.022782E1,9.821997E0,1.1885879E2,2.1100378E2,3.1007983E2,1.0638479E1,4.804878E1,7.0489426E1,7.086738E1,1.936044E1,4.1750517E0,5.646945E0,8.131752E1,3.7541267E1,2.1235428E1,1.8976836E2,2.0545172E2,1.0462812E2,9.406997E0,1.2314826E0,9.659609E0,3.838917E1,2.3453876E1,4.703555E1],"tree_param":{"num_deleted":"0","num_feature":"7","num_nodes":"31","size_leaf_vector":"1"}},{"base_weights":[-1.6211466E-1,-1.2966661E-1,-2.8472432E-1,-1.3716142E-1,4.6956336E-1,-2.0285507E-1,-4.093199E-1,-7.2348802E-3,-1.674724E-1,-1.710665E-2,6.3806224E-1,-2.2570334E-1,4.8042184E-1,-2.223084E-2,-4.3469986E-1,-1.2392331E-2,3.5850354E-3,2.2983715E-2,-8.596038E-3,-2.4071326E-3,4.0502753E-2,-1.9118939E-2,-8.283867E-3,3.6894254E-2,1.8611197E-4,-2.3625057E-2,2.5017602E-2,-2.5162673E-2,-1.396119E-2],"categories":[],"categories_nodes":[],"categories_segments":[],"categories_sizes":[],"default_left":[0,0,0,0,0,0,0,0,0,0,0,0,0,0,0,0,0,0,0,0,0,0,0,0,0,0,0,0,0],"id":34,"left_children":[1,3,5,7,9,11,13,15,17,-1,19,21,23,25,27,-1,-1,-1,-1,-1,-1,-1,-1,-1,-1,-1,-1,-1,-1],"loss_changes":[3.2668667E0,3.021717E0,1.6810627E0,2.5630312E0,1.3617277E0,1.7687001E0,6.54397E-1,2.3769243E0,1.5517616E0,0E0,8.972695E-1,9.108424E-1,4.5882064E-1,1.463068E0,5.350199E-1,0E0,0E0,0E0,0E0,0E0,0E0,0E0,0E0,0E0,0E0,0E0,0E0,0E0,0E0],"parents":[2147483647,0,0,1,1,2,2,3,3,4,4,5,5,6,6,7,7,8,8,10,10,11,11,12,12,13,13,14,14],"right_children":[2,4,6,8,10,12,14,16,18,-1,20,22,24,26,28,-1,-1,-1,-1,-1,-1,-1,-1,-1,-1,-1,-1,-1,-1],"split_conditions":[8.632109E1,1.6658383E3,1.6374594E3,1.4679729E3,-4.9808353E1,1.633498E3,1.558713E0,9.209136E-1,4.6209732E-1,-1.710665E-2,2E0,1.0869519E2,2.2E0,1.6691809E3,1.524892E3,-1.2392331E-2,3.5850354E-3,2.2983715E-2,-8.596038E-3,-2.4071326E-3,4.0502753E-2,-1.9118939E-2,-8.283867E-3,3.6894254E-2,1.8611197E-4,-2.3625057E-2,2.5017602E-2,-2.5162673E-2,-1.396119E-2],"split_indices":[0,1,1,2,0,1,3,4,3,0,6,0,5,1,2,0,0,0,0,0,0,0,0,0,0,0,0,0,0],"split_type":[0,0,0,0,0,0,0,0,0,0,0,0,0,0,0,0,0,0,0,0,0,0,0,0,0,0,0,0,0],"sum_hessian":[8.2942145E2,6.574801E2,1.7194135E2,6.501199E2,7.360211E0,1.0534763E2,6.659372E1,1.2321286E2,5.26907E2,1.0881028E0,6.272108E0,1.02586876E2,2.7607546E0,4.213059E0,6.238066E1,2.9907835E1,9.330503E1,2.9902663E0,5.2391675E2,1.4013176E0,4.8707905E0,2.6928896E1,7.565798E1,1.4368273E0,1.3239273E0,2.314588E0,1.8984711E0,4.1739662E1,2.0640995E1],"tree_param":{"num_deleted":"0","num_feature":"7","num_nodes":"29","size_leaf_vector":"1"}},{"base_weights":[1.5465873E-1,-5.9449024E-2,3.5146794E-1,-2.1960612E-1,6.153378E-2,2.1858592E-1,4.8131734E-1,-1.3061051E-1,-3.2298034E-1,1.9857043E-2,4.4964495E-1,2.390852E-1,-1.5648629E-1,4.2299482E-1,6.3481104E-1,-4.391256E-3,-3.0572558E-2,-1.7585298E-2,1.1311981E-2,6.0954425E-3,-4.242557E-3,6.723367E-4,2.6383096E-2,1.0286571E-2,4.245351E-2,-1.2845579E-2,2.0072931E-2,2.4827769E-2,1.6296849E-2,1.9020446E-2,3.6403697E-2],"categories":[],"categories_nodes":[],"categories_segments":[],"categories_sizes":[],"default_left":[0,0,0,0,0,0,0,0,0,0,0,0,0,0,0,0,0,0,0,0,0,0,0,0,0,0,0,0,0,0,0],"id":35,"left_children":[1,3,5,7,9,11,13,15,17,19,21,23,25,27,29,-1,-1,-1,-1,-1,-1,-1,-1,-1,-1,-1,-1,-1,-1,-1,-1],"loss_changes":[3.8537323E1,8.512692E0,8.115032E0,1.6963863E0,4.045562E0,1.8618383E0,1.8810768E0,2.0700583E0,1.4481583E0,2.4402661E0,8.1851006E-1,4.4108486E0,8.2600677E-1,1.1018829E0,1.2443447E0,0E0,0E0,0E0,0E0,0E0,0E0,0E0,0E0,0E0,0E0,0E0,0E0,0E0,0E0,0E0,0E0],"parents":[2147483647,0,0,1,1,2,2,3,3,4,4,5,5,6,6,7,7,8,8,9,9,10,10,11,11,12,12,13,13,14,14],"right_children":[2,4,6,8,10,12,14,16,18,20,22,24,26,28,30,-1,-1,-1,-1,-1,-1,-1,-1,-1,-1,-1,-1,-1,-1,-1,-1],"split_conditions":[-1.4477291E0,-8.429267E1,7.727262E1,1.9177834E0,1.92252E0,1.6108951E3,2.2333913E0,-8.891963E1,1.5961902E3,1.3898263E0,1.4899645E3,1.5928115E3,2.696606E0,1.2987072E0,1.6211427E3,-4.391256E-3,-3.0572558E-2,-1.7585298E-2,1.1311981E-2,6.0954425E-3,-4.242557E-3,6.723367E-4,2.6383096E-2,1.0286571E-2,4.245351E-2,-1.2845579E-2,2.0072931E-2,2.4827769E-2,1.6296849E-2,1.9020446E-2,3.6403697E-2],"split_indices":[0,0,0,4,3,1,3,0,1,4,1,1,4,4,1,0,0,0,0,0,0,0,0,0,0,0,0,0,0,0,0],"split_type":[0,0,0,0,0,0,0,0,0,0,0,0,0,0,0,0,0,0,0,0,0,0,0,0,0,0,0,0,0,0,0],"sum_hessian":[9.130463E2,4.3763895E2,4.7540735E2,1.8797818E2,2.4966078E2,2.3628618E2,2.3912119E2,1.02230606E2,8.5747574E1,2.2640028E2,2.3260492E1,2.2438515E2,1.1901028E1,1.7600203E2,6.3119156E1,9.496338E1,7.2672315E0,8.1827415E1,3.9201548E0,1.14571304E2,1.1182898E2,3.7069628E0,1.955353E1,2.1401988E2,1.0365264E1,1.0542931E1,1.3580972E0,9.7778885E1,7.822314E1,1.829447E1,4.4824688E1],"tree_param":{"num_deleted":"0","num_feature":"7","num_nodes":"31","size_leaf_vector":"1"}},{"base_weights":[-7.4924054E-3,2.871139E-1,-1.5943596E-1,4.508363E-1,2.0068432E-1,-9.7873524E-2,-3.9681673E-1,4.882857E-1,9.389872E-2,1.6284683E-1,4.8477855E-1,-6.369688E-2,-3.1386837E-1,-4.9234918E-1,-3.1813377E-1,3.4907464E-2,2.1735573E-2,3.443026E-2,-3.6358566E-3,9.987821E-3,-1.2873205E-2,1.1095771E-2,3.9817568E-2,-7.7381693E-3,3.1950697E-3,1.6220289E-3,-1.8834755E-2,-1.0349871E-2,-2.7372137E-2,-1.0985924E-2,-2.267928E-2],"categories":[],"categories_nodes":[],"categories_segments":[],"categories_sizes":[],"default_left":[0,0,0,0,0,0,0,0,0,0,0,0,0,0,0,0,0,0,0,0,0,0,0,0,0,0,0,0,0,0,0],"id":36,"left_children":[1,3,5,7,9,11,13,15,17,19,21,23,25,27,29,-1,-1,-1,-1,-1,-1,-1,-1,-1,-1,-1,-1,-1,-1,-1,-1],"loss_changes":[3.8893368E1,4.093096E0,8.337624E0,1.3088665E0,2.02044E0,3.3497262E0,7.2817993E-1,7.251034E-1,1.1263222E0,2.7485094E0,1.6618366E0,4.6040936E0,1.3634939E0,6.9375896E-1,7.984748E-1,0E0,0E0,0E0,0E0,0E0,0E0,0E0,0E0,0E0,0E0,0E0,0E0,0E0,0E0,0E0,0E0],"parents":[2147483647,0,0,1,1,2,2,3,3,4,4,5,5,6,6,7,7,8,8,9,9,10,10,11,11,12,12,13,13,14,14],"right_children":[2,4,6,8,10,12,14,16,18,20,22,24,26,28,30,-1,-1,-1,-1,-1,-1,-1,-1,-1,-1,-1,-1,-1,-1,-1,-1],"split_conditions":[-5.6585495E1,-1.5442683E2,1.2005383E2,1.5137362E3,-6.442281E1,1.981467E0,1.1778616E0,-2.7760907E2,1.076707E0,1.927596E0,1.5496748E3,1.3984174E0,1.0487384E0,1.25E0,1.4813093E3,3.4907464E-2,2.1735573E-2,3.443026E-2,-3.6358566E-3,9.987821E-3,-1.2873205E-2,1.1095771E-2,3.9817568E-2,-7.7381693E-3,3.1950697E-3,1.6220289E-3,-1.8834755E-2,-1.0349871E-2,-2.7372137E-2,-1.0985924E-2,-2.267928E-2],"split_indices":[0,0,0,1,0,3,4,0,3,3,2,4,4,5,2,0,0,0,0,0,0,0,0,0,0,0,0,0,0,0,0],"split_type":[0,0,0,0,0,0,0,0,0,0,0,0,0,0,0,0,0,0,0,0,0,0,0,0,0,0,0,0,0,0,0],"sum_hessian":[8.668402E2,2.9464932E2,5.7219086E2,1.0034703E2,1.9430229E2,4.5547903E2,1.16711845E2,9.0485435E1,9.861595E0,1.7285374E2,2.1448553E1,3.9437274E2,6.110629E1,5.0337486E1,6.637435E1,1.5954858E1,7.453058E1,1.4725809E0,8.389014E0,1.5938234E2,1.3471405E1,1.2562365E1,8.8861885E0,2.3000557E2,1.6436717E2,9.457728E0,5.1648563E1,8.915862E0,4.1421627E1,3.9961567E1,2.6412788E1],"tree_param":{"num_deleted":"0","num_feature":"7","num_nodes":"31","size_leaf_vector":"1"}},{"base_weights":[-1.565401E-1,-1.2512644E-1,-2.7609476E-1,-1.3583435E-1,2.8443116E-1,-1.9537376E-1,-4.000086E-1,-9.398232E-2,-2.353156E-1,-2.115844E-2,3.9639884E-1,-2.1808511E-1,4.76367E-1,-1.8922899E-2,-4.2531368E-1,-3.1701282E-3,-1.8403128E-2,-2.3687264E-2,-8.230283E-3,-2.2016611E-2,2.6536748E-2,-5.94924E-3,-1.5639849E-2,3.6570054E-2,1.6878947E-4,-2.3331607E-2,2.4645342E-2,-2.4717396E-2,-1.3508297E-2],"categories":[],"categories_nodes":[],"categories_segments":[],"categories_sizes":[],"default_left":[0,0,0,0,0,0,0,0,0,0,0,0,0,0,0,0,0,0,0,0,0,0,0,0,0,0,0,0,0],"id":37,"left_children":[1,3,5,7,9,11,13,15,17,-1,19,21,23,25,27,-1,-1,-1,-1,-1,-1,-1,-1,-1,-1,-1,-1,-1,-1],"loss_changes":[3.0662498E0,2.9140568E0,1.6319695E0,2.6410036E0,1.5169095E0,1.7131577E0,6.3311005E-1,3.764092E0,3.1041527E0,0E0,1.9443319E0,9.2690563E-1,4.515497E-1,1.4185102E0,5.3371143E-1,0E0,0E0,0E0,0E0,0E0,0E0,0E0,0E0,0E0,0E0,0E0,0E0,0E0,0E0],"parents":[2147483647,0,0,1,1,2,2,3,3,4,4,5,5,6,6,7,7,8,8,10,10,11,11,12,12,13,13,14,14],"right_children":[2,4,6,8,10,12,14,16,18,-1,20,22,24,26,28,-1,-1,-1,-1,-1,-1,-1,-1,-1,-1,-1,-1,-1,-1],"split_conditions":[8.632109E1,1.6269122E3,1.6374594E3,1.7947499E0,-4.9808353E1,1.633498E3,1.558713E0,1.544664E3,1.9392878E0,-2.115844E-2,1.5802351E3,1.6666666E0,1.3627428E0,1.6691809E3,1.524892E3,-3.1701282E-3,-1.8403128E-2,-2.3687264E-2,-8.230283E-3,-2.2016611E-2,2.6536748E-2,-5.94924E-3,-1.5639849E-2,3.6570054E-2,1.6878947E-4,-2.3331607E-2,2.4645342E-2,-2.4717396E-2,-1.3508297E-2],"split_indices":[0,1,1,4,0,1,3,1,4,0,2,5,4,1,2,0,0,0,0,0,0,0,0,0,0,0,0,0,0],"split_type":[0,0,0,0,0,0,0,0,0,0,0,0,0,0,0,0,0,0,0,0,0,0,0,0,0,0,0,0,0],"sum_hessian":[8.246348E2,6.546647E2,1.6997015E2,6.386358E2,1.6028831E1,1.0448337E2,6.548678E1,4.5088992E2,1.8774588E2,1.8101131E0,1.4218719E1,1.01719604E2,2.7637663E0,4.1865563E0,6.1300224E1,4.0674033E2,4.4149605E1,4.1639652E1,1.4610623E2,1.6518843E0,1.2566834E1,5.0810795E1,5.090881E1,1.4406468E0,1.3231195E0,2.2802634E0,1.906293E0,4.0910477E1,2.038975E1],"tree_param":{"num_deleted":"0","num_feature":"7","num_nodes":"29","size_leaf_vector":"1"}},{"base_weights":[1.484998E-1,-5.7525706E-2,3.3688998E-1,-2.1348196E-1,5.940811E-2,2.4820697E-1,5.1673E-1,2.0141047E-1,-2.3412769E-1,1.7849138E-2,4.294072E-1,2.0859854E-1,4.2251334E-1,4.6794853E-1,6.8287414E-1,4.742675E-2,-4.8791175E-3,-2.8945653E-2,-9.904145E-3,2.032693E-3,-2.1089694E-2,-6.664307E-3,2.3915423E-2,1.096537E-2,-2.7383564E-2,2.3191845E-2,-2.3843046E-2,2.7587492E-2,1.7553382E-2,3.5910662E-2,1.2127175E-2],"categories":[],"categories_nodes":[],"categories_segments":[],"categories_sizes":[],"default_left":[0,0,0,0,0,0,0,0,0,0,0,0,0,0,0,0,0,0,0,0,0,0,0,0,0,0,0,0,0,0,0],"id":38,"left_children":[1,3,5,7,9,11,13,15,17,19,21,23,25,27,29,-1,-1,-1,-1,-1,-1,-1,-1,-1,-1,-1,-1,-1,-1,-1,-1],"loss_changes":[3.5499428E1,7.9908037E0,7.489567E0,1.6547623E0,3.8488503E0,2.1337128E0,9.514656E-1,2.1999815E0,2.1129236E0,2.2882097E0,7.5943327E-1,2.2598686E0,2.3995628E0,1.0248318E0,3.4579754E-1,0E0,0E0,0E0,0E0,0E0,0E0,0E0,0E0,0E0,0E0,0E0,0E0,0E0,0E0,0E0,0E0],"parents":[2147483647,0,0,1,1,2,2,3,3,4,4,5,5,6,6,7,7,8,8,9,9,10,10,11,11,12,12,13,13,14,14],"right_children":[2,4,6,8,10,12,14,16,18,20,22,24,26,28,30,-1,-1,-1,-1,-1,-1,-1,-1,-1,-1,-1,-1,-1,-1,-1,-1],"split_conditions":[-1.4477291E0,-8.429267E1,1.2005383E2,1.4866772E3,1.8964581E0,1.991762E0,2.413486E0,-1.3350291E2,1.3900247E3,2.2E0,1.4674832E3,2.5E0,1.677694E3,1.2987072E0,1.872103E0,4.742675E-2,-4.8791175E-3,-2.8945653E-2,-9.904145E-3,2.032693E-3,-2.1089694E-2,-6.664307E-3,2.3915423E-2,1.096537E-2,-2.7383564E-2,2.3191845E-2,-2.3843046E-2,2.7587492E-2,1.7553382E-2,3.5910662E-2,1.2127175E-2],"split_indices":[0,0,0,2,3,3,3,0,1,5,1,6,2,4,4,0,0,0,0,0,0,0,0,0,0,0,0,0,0,0,0],"split_type":[0,0,0,0,0,0,0,0,0,0,0,0,0,0,0,0,0,0,0,0,0,0,0,0,0,0,0,0,0,0,0],"sum_hessian":[9.131235E2,4.364795E2,4.7664398E2,1.8667834E2,2.4980116E2,3.208206E2,1.558234E2,8.434037E0,1.7824431E2,2.2551874E2,2.4282433E1,2.632075E2,5.7613113E1,1.2340658E2,3.241682E1,1.7896409E0,6.6443963E0,1.54449625E1,1.6279935E2,2.1526048E2,1.0258246E1,1.803574E0,2.2478859E1,2.6023257E2,2.9749064E0,5.5545242E1,2.067871E0,6.970725E1,5.3699326E1,2.9424273E1,2.9925463E0],"tree_param":{"num_deleted":"0","num_feature":"7","num_nodes":"31","size_leaf_vector":"1"}},{"base_weights":[-7.1477867E-3,1.975847E-1,-2.1145546E-1,4.3415973E-1,1.24661766E-1,-1.4672413E-1,-3.877006E-1,4.704675E-1,8.840887E-2,3.7521833E-1,9.045188E-2,-1.3131915E-1,-5.499167E-1,-2.7963105E-1,-4.569573E-1,2.0564381E-2,3.2821845E-2,-5.679605E-3,2.8097639E-2,8.555878E-3,3.563135E-2,-3.0456707E-3,8.348967E-3,2.0740412E-2,-7.0821345E-3,-3.141652E-2,2.828117E-3,-3.0082915E-2,-9.294433E-3,-2.914678E-2,-1.9164784E-2],"categories":[],"categories_nodes":[],"categories_segments":[],"categories_sizes":[],"default_left":[0,0,0,0,0,0,0,0,0,0,0,0,0,0,0,0,0,0,0,0,0,0,0,0,0,0,0,0,0,0,0],"id":39,"left_children":[1,3,5,7,9,11,13,15,17,19,21,23,25,27,29,-1,-1,-1,-1,-1,-1,-1,-1,-1,-1,-1,-1,-1,-1,-1,-1],"loss_changes":[3.6238804E1,7.4116096E0,4.890068E0,1.233345E0,2.8134422E0,1.907579E0,7.3945427E-1,7.389889E-1,1.1048547E0,2.6044054E0,3.4111357E0,1.7971106E0,5.7847214E-1,1.3320665E0,4.1722488E-1,0E0,0E0,0E0,0E0,0E0,0E0,0E0,0E0,0E0,0E0,0E0,0E0,0E0,0E0,0E0,0E0],"parents":[2147483647,0,0,1,1,2,2,3,3,4,4,5,5,6,6,7,7,8,8,9,9,10,10,11,11,12,12,13,13,14,14],"right_children":[2,4,6,8,10,12,14,16,18,20,22,24,26,28,30,-1,-1,-1,-1,-1,-1,-1,-1,-1,-1,-1,-1,-1,-1,-1,-1],"split_conditions":[-1.2860684E1,-1.5442683E2,1.2005383E2,1.5137362E3,1.4781704E3,2.332238E0,2E0,-1.7448994E2,2.63881E0,1.1263525E0,1.3940736E0,5.2650964E-1,2.968438E0,1.2824703E0,1.4436195E3,2.0564381E-2,3.2821845E-2,-5.679605E-3,2.8097639E-2,8.555878E-3,3.563135E-2,-3.0456707E-3,8.348967E-3,2.0740412E-2,-7.0821345E-3,-3.141652E-2,2.828117E-3,-3.0082915E-2,-9.294433E-3,-2.914678E-2,-1.9164784E-2],"split_indices":[0,0,0,1,2,4,5,0,4,3,4,4,4,3,2,0,0,0,0,0,0,0,0,0,0,0,0,0,0,0,0],"split_type":[0,0,0,0,0,0,0,0,0,0,0,0,0,0,0,0,0,0,0,0,0,0,0,0,0,0,0,0,0,0,0],"sum_hessian":[8.643691E2,4.3175214E2,4.3261694E2,1.00560905E2,3.3119122E2,3.177472E2,1.1486976E2,9.067797E1,9.882933E0,3.8589542E1,2.9260168E2,3.0733057E2,1.041663E1,4.683114E1,6.803862E1,7.122429E1,1.9453684E1,7.4605765E0,2.4223561E0,2.4983818E1,1.3605725E1,9.832553E1,1.9427615E2,4.974837E0,3.0235574E2,9.192119E0,1.2245104E0,9.337256E0,3.749388E1,2.2553421E1,4.54852E1],"tree_param":{"num_deleted":"0","num_feature":"7","num_nodes":"31","size_leaf_vector":"1"}},{"base_weights":[-1.5116091E-1,-1.2073419E-1,-2.6776174E-1,-1.3118117E-1,2.7698672E-1,-1.8784177E-1,-3.9141026E-1,-1.7645012E-3,-1.6205956E-1,-2.0902866E-2,3.8567367E-1,-2.1039413E-1,4.715805E-1,-1.49052115E-2,-4.166963E-1,1.4566196E-3,-3.0128658E-2,-6.4116456E-3,-1.2884691E-2,3.9444957E-3,3.9825432E-2,-1.842227E-2,-7.509789E-3,3.6040433E-2,2.669481E-4,-2.301935E-2,2.4304379E-2,-2.4296112E-2,-1.31323775E-2],"categories":[],"categories_nodes":[],"categories_segments":[],"categories_sizes":[],"default_left":[0,0,0,0,0,0,0,0,0,0,0,0,0,0,0,0,0,0,0,0,0,0,0,0,0,0,0,0,0],"id":40,"left_children":[1,3,5,7,9,11,13,15,17,-1,19,21,23,25,27,-1,-1,-1,-1,-1,-1,-1,-1,-1,-1,-1,-1,-1,-1],"loss_changes":[2.880066E0,2.7488909E0,1.5971441E0,2.5445356E0,1.4477787E0,1.6549549E0,6.168947E-1,2.313504E0,1.6301584E0,0E0,1.8589718E0,9.136467E-1,4.3398768E-1,1.3745407E0,5.260248E-1,0E0,0E0,0E0,0E0,0E0,0E0,0E0,0E0,0E0,0E0,0E0,0E0,0E0,0E0],"parents":[2147483647,0,0,1,1,2,2,3,3,4,4,5,5,6,6,7,7,8,8,10,10,11,11,12,12,13,13,14,14],"right_children":[2,4,6,8,10,12,14,16,18,-1,20,22,24,26,28,-1,-1,-1,-1,-1,-1,-1,-1,-1,-1,-1,-1,-1,-1],"split_conditions":[8.632109E1,1.6269122E3,1.6374594E3,1.4679729E3,-4.9808353E1,1.633498E3,1.558713E0,2.095106E0,1.5233348E3,-2.0902866E-2,2.332238E0,1.0869519E2,2.2E0,1.6691809E3,1.524892E3,1.4566196E-3,-3.0128658E-2,-6.4116456E-3,-1.2884691E-2,3.9444957E-3,3.9825432E-2,-1.842227E-2,-7.509789E-3,3.6040433E-2,2.669481E-4,-2.301935E-2,2.4304379E-2,-2.4296112E-2,-1.31323775E-2],"split_indices":[0,1,1,2,0,1,3,3,1,0,4,0,5,1,2,0,0,0,0,0,0,0,0,0,0,0,0,0,0],"split_type":[0,0,0,0,0,0,0,0,0,0,0,0,0,0,0,0,0,0,0,0,0,0,0,0,0,0,0,0,0],"sum_hessian":[8.1990607E2,6.5184424E2,1.6806186E2,6.358134E2,1.6030807E1,1.0361177E2,6.4450096E1,1.2268339E2,5.1313E2,1.7828964E0,1.4247911E1,1.00843834E2,2.7679358E0,4.1560893E0,6.0294006E1,1.1758788E2,5.095505E0,3.8078427E2,1.3234575E2,8.839325E0,5.408587E0,2.6402733E1,7.44411E1,1.4479433E0,1.3199923E0,2.2428248E0,1.9132645E0,4.011356E1,2.0180447E1],"tree_param":{"num_deleted":"0","num_feature":"7","num_nodes":"29","size_leaf_vector":"1"}},{"base_weights":[1.425413E-1,-7.045554E-2,3.106277E-1,-2.0706137E-1,4.628704E-2,1.9158848E-1,4.434071E-1,-1.19250044E-1,-3.097169E-1,6.273842E-3,4.330034E-1,4.8905125E-1,1.5689985E-1,3.7610355E-1,5.6034756E-1,-3.8301249E-3,-3.0135674E-2,-1.6912369E-2,1.1215565E-2,1.4566492E-3,-2.2884166E-2,4.3935436E-4,2.801737E-2,-1.7782154E-2,3.0014718E-2,8.276547E-3,-2.4791474E-2,3.9523806E-2,1.7515784E-2,2.9027773E-2,-1.1365307E-2],"categories":[],"categories_nodes":[],"categories_segments":[],"categories_sizes":[],"default_left":[0,0,0,0,0,0,0,0,0,0,0,0,0,0,0,0,0,0,0,0,0,0,0,0,0,0,0,0,0,0,0],"id":41,"left_children":[1,3,5,7,9,11,13,15,17,19,21,23,25,27,29,-1,-1,-1,-1,-1,-1,-1,-1,-1,-1,-1,-1,-1,-1,-1,-1],"loss_changes":[3.27427E1,6.4513783E0,7.9920425E0,1.642561E0,3.380126E0,2.721736E0,1.6844864E0,2.057815E0,1.375061E0,2.1252768E0,1.1016762E0,2.8305883E0,1.4587159E0,1.3887825E0,1.4995842E0,0E0,0E0,0E0,0E0,0E0,0E0,0E0,0E0,0E0,0E0,0E0,0E0,0E0,0E0,0E0,0E0],"parents":[2147483647,0,0,1,1,2,2,3,3,4,4,5,5,6,6,7,7,8,8,9,9,10,10,11,11,12,12,13,13,14,14],"right_children":[2,4,6,8,10,12,14,16,18,20,22,24,26,28,30,-1,-1,-1,-1,-1,-1,-1,-1,-1,-1,-1,-1,-1,-1,-1,-1],"split_conditions":[-1.0299581E1,-8.429267E1,7.727262E1,1.9177834E0,1.92252E0,8.066596E-1,1.651025E3,-8.891963E1,1.5961902E3,2.2E0,1.5048473E3,5.2650964E-1,1.680611E3,8.001721E1,2.5E0,-3.8301249E-3,-3.0135674E-2,-1.6912369E-2,1.1215565E-2,1.4566492E-3,-2.2884166E-2,4.3935436E-4,2.801737E-2,-1.7782154E-2,3.0014718E-2,8.276547E-3,-2.4791474E-2,3.9523806E-2,1.7515784E-2,2.9027773E-2,-1.1365307E-2],"split_indices":[0,0,0,4,3,4,1,0,1,5,1,4,1,0,6,0,0,0,0,0,0,0,0,0,0,0,0,0,0,0,0],"split_type":[0,0,0,0,0,0,0,0,0,0,0,0,0,0,0,0,0,0,0,0,0,0,0,0,0,0,0,0,0,0,0],"sum_hessian":[9.1294135E2,4.0293204E2,5.100093E2,1.8531401E2,2.1761803E2,2.7020676E2,2.3980255E2,1.0104339E2,8.427063E1,1.9813356E2,1.948448E1,2.6851423E1,2.4335533E2,1.5487975E2,8.4922806E1,9.391716E1,7.126228E0,8.034482E1,3.9258127E0,1.8972311E2,8.410439E0,4.745378E0,1.4739101E1,2.8690538E0,2.398237E1,2.4091609E2,2.4392502E0,7.336711E0,1.4754303E2,8.305489E1,1.8679128E0],"tree_param":{"num_deleted":"0","num_feature":"7","num_nodes":"31","size_leaf_vector":"1"}},{"base_weights":[-6.806661E-3,2.5886458E-1,-1.5395439E-1,4.184496E-1,1.7928201E-1,-6.218058E-2,-2.978716E-1,4.5401913E-1,8.086643E-2,3.4815025E-2,1.5705179E-1,-1.1711999E-1,3.6628377E-1,-5.8379364E-1,-2.6516724E-1,3.3297602E-2,2.0115806E-2,-1.3549308E-2,1.706849E-2,-2.2351136E-2,8.665701E-3,-1.2032375E-2,-2.2454269E-3,1.4019514E-2,5.6491155E-2,-1.8554105E-3,-3.129128E-2,-1.1604632E-2,-2.7864574E-2],"categories":[],"categories_nodes":[],"categories_segments":[],"categories_sizes":[],"default_left":[0,0,0,0,0,0,0,0,0,0,0,0,0,0,0,0,0,0,0,0,0,0,0,0,0,0,0,0,0],"id":42,"left_children":[1,3,5,7,9,11,13,15,17,-1,19,21,23,25,27,-1,-1,-1,-1,-1,-1,-1,-1,-1,-1,-1,-1,-1,-1],"loss_changes":[3.377572E1,3.8363037E0,7.32493E0,1.1848011E0,2.272612E0,8.064312E0,1.8671341E0,7.38142E-1,1.0928341E0,0E0,2.042131E0,2.6901312E0,2.2390046E0,4.6763706E-1,1.7631073E0,0E0,0E0,0E0,0E0,0E0,0E0,0E0,0E0,0E0,0E0,0E0,0E0,0E0,0E0],"parents":[2147483647,0,0,1,1,2,2,3,3,4,4,5,5,6,6,7,7,8,8,10,10,11,11,12,12,13,13,14,14],"right_children":[2,4,6,8,10,12,14,16,18,-1,20,22,24,26,28,-1,-1,-1,-1,-1,-1,-1,-1,-1,-1,-1,-1,-1,-1],"split_conditions":[-5.253993E1,-1.5442683E2,1.5455724E3,1.5137362E3,1.4595406E3,1.810822E0,8.623894E-1,1.3956399E3,-2.1398293E2,3.4815025E-2,1.360125E3,1.4622957E3,4.0916035E1,4.941332E-1,2.4E0,3.3297602E-2,2.0115806E-2,-1.3549308E-2,1.706849E-2,-2.2351136E-2,8.665701E-3,-1.2032375E-2,-2.2454269E-3,1.4019514E-2,5.6491155E-2,-1.8554105E-3,-3.129128E-2,-1.1604632E-2,-2.7864574E-2],"split_indices":[0,0,1,1,2,4,4,1,0,0,1,2,0,4,6,0,0,0,0,0,0,0,0,0,0,0,0,0,0],"split_type":[0,0,0,0,0,0,0,0,0,0,0,0,0,0,0,0,0,0,0,0,0,0,0,0,0,0,0,0,0],"sum_hessian":[8.619661E2,3.0697388E2,5.5499225E2,1.0072811E2,2.0624577E2,3.3976276E2,2.1522949E2,9.0814514E1,9.913603E0,7.2523513E0,1.9899342E2,3.017924E2,3.797037E1,2.0361929E1,1.9486757E2,1.5480188E1,7.533432E1,4.2002435E0,5.71336E0,4.522249E0,1.9447118E2,1.1047587E2,1.9131653E2,3.5359833E1,2.6105402E0,1.5881839E0,1.8773745E1,1.766604E2,1.8207165E1],"tree_param":{"num_deleted":"0","num_feature":"7","num_nodes":"29","size_leaf_vector":"1"}},{"base_weights":[-1.459235E-1,-1.16476476E-1,-2.5957632E-1,-1.2358628E-1,4.450917E-1,-1.8126841E-1,-3.8196453E-1,5.450565E-4,-1.5280268E-1,-1.6240858E-2,5.97601E-1,-2.0364767E-1,4.6633357E-1,-9.998257E-3,-4.0727842E-1,-1.1900819E-2,3.9188503E-3,2.2912236E-2,-7.861188E-3,4.3460663E-2,6.7608E-3,-5.253834E-3,-1.4921727E-2,3.5702977E-2,1.8930818E-4,-2.2718055E-2,2.40841E-2,-2.386396E-2,-1.2646066E-2],"categories":[],"categories_nodes":[],"categories_segments":[],"categories_sizes":[],"default_left":[0,0,0,0,0,0,0,0,0,0,0,0,0,0,0,0,0,0,0,0,0,0,0,0,0,0,0,0,0],"id":43,"left_children":[1,3,5,7,9,11,13,15,17,-1,19,21,23,25,27,-1,-1,-1,-1,-1,-1,-1,-1,-1,-1,-1,-1,-1,-1],"loss_changes":[2.701645E0,2.6507092E0,1.5328188E0,2.3312206E0,1.174009E0,1.5999143E0,6.015558E-1,2.3110352E0,1.4776697E0,0E0,8.014953E-1,9.1294336E-1,4.2957163E-1,1.3382572E0,5.2971077E-1,0E0,0E0,0E0,0E0,0E0,0E0,0E0,0E0,0E0,0E0,0E0,0E0,0E0,0E0],"parents":[2147483647,0,0,1,1,2,2,3,3,4,4,5,5,6,6,7,7,8,8,10,10,11,11,12,12,13,13,14,14],"right_children":[2,4,6,8,10,12,14,16,18,-1,20,22,24,26,28,-1,-1,-1,-1,-1,-1,-1,-1,-1,-1,-1,-1,-1,-1],"split_conditions":[8.632109E1,1.6658383E3,1.6374594E3,1.4679729E3,-4.9808353E1,1.633498E3,1.558713E0,9.209136E-1,4.6209732E-1,-1.6240858E-2,2.6E0,1.6666666E0,1.3627428E0,1.6691809E3,1.524892E3,-1.1900819E-2,3.9188503E-3,2.2912236E-2,-7.861188E-3,4.3460663E-2,6.7608E-3,-5.253834E-3,-1.4921727E-2,3.5702977E-2,1.8930818E-4,-2.2718055E-2,2.40841E-2,-2.386396E-2,-1.2646066E-2],"split_indices":[0,1,1,2,0,1,3,4,3,0,5,5,4,1,2,0,0,0,0,0,0,0,0,0,0,0,0,0,0],"split_type":[0,0,0,0,0,0,0,0,0,0,0,0,0,0,0,0,0,0,0,0,0,0,0,0,0,0,0,0,0],"sum_hessian":[8.152818E2,6.491217E2,1.6616014E2,6.417763E2,7.345365E0,1.02840546E2,6.3319584E1,1.2246063E2,5.193157E2,1.0276558E0,6.317709E0,1.0006802E2,2.7725284E0,4.1234756E0,5.919611E1,2.9618717E1,9.284192E1,2.9930158E0,5.163227E2,3.425606E0,2.892103E0,5.008845E1,4.997957E1,1.4514323E0,1.3210961E0,2.2058287E0,1.9176469E0,3.928731E1,1.9908798E1],"tree_param":{"num_deleted":"0","num_feature":"7","num_nodes":"29","size_leaf_vector":"1"}},{"base_weights":[1.368042E-1,-5.3982906E-2,3.0974138E-1,-2.0116712E-1,5.464696E-2,1.9198948E-1,4.254935E-1,2.0683639E-1,-2.2171411E-1,1.6140517E-2,4.1098154E-1,4.3527904E-1,1.6206174E-1,3.717879E-1,5.6822026E-1,4.6329986E-2,-4.3911473E-3,-2.8399317E-2,-9.299123E-3,5.5849412E-3,-4.128241E-3,-2.6405703E-3,2.3636548E-2,7.7138627E-3,4.0645447E-2,3.340748E-2,7.1877055E-3,2.2051914E-2,1.4038714E-2,1.6403615E-2,3.2908965E-2],"categories":[],"categories_nodes":[],"categories_segments":[],"categories_sizes":[],"default_left":[0,0,0,0,0,0,0,0,0,0,0,0,0,0,0,0,0,0,0,0,0,0,0,0,0,0,0,0,0,0,0],"id":44,"left_children":[1,3,5,7,9,11,13,15,17,19,21,23,25,27,29,-1,-1,-1,-1,-1,-1,-1,-1,-1,-1,-1,-1,-1,-1,-1,-1],"loss_changes":[3.0161247E1,6.970016E0,6.452305E0,1.5970869E0,3.4402575E0,1.6729965E0,1.6354675E0,2.0726697E0,2.080037E0,2.1574006E0,7.254181E-1,2.5950418E0,1.894351E0,9.977093E-1,1.1661873E0,0E0,0E0,0E0,0E0,0E0,0E0,0E0,0E0,0E0,0E0,0E0,0E0,0E0,0E0,0E0,0E0],"parents":[2147483647,0,0,1,1,2,2,3,3,4,4,5,5,6,6,7,7,8,8,9,9,10,10,11,11,12,12,13,13,14,14],"right_children":[2,4,6,8,10,12,14,16,18,20,22,24,26,28,30,-1,-1,-1,-1,-1,-1,-1,-1,-1,-1,-1,-1,-1,-1,-1,-1],"split_conditions":[-1.4477291E0,-8.429267E1,7.727262E1,1.4866772E3,1.92252E0,8.254481E-1,2.2333913E0,-1.3350291E2,1.3900247E3,1.3898263E0,1.4706985E3,1.4759974E3,1.449939E3,1.2987072E0,1.6211427E3,4.6329986E-2,-4.3911473E-3,-2.8399317E-2,-9.299123E-3,5.5849412E-3,-4.128241E-3,-2.6405703E-3,2.3636548E-2,7.7138627E-3,4.0645447E-2,3.340748E-2,7.1877055E-3,2.2051914E-2,1.4038714E-2,1.6403615E-2,3.2908965E-2],"split_indices":[0,0,0,2,3,4,3,0,1,4,1,2,1,4,1,0,0,0,0,0,0,0,0,0,0,0,0,0,0,0,0],"split_type":[0,0,0,0,0,0,0,0,0,0,0,0,0,0,0,0,0,0,0,0,0,0,0,0,0,0,0,0,0,0,0],"sum_hessian":[9.126314E2,4.342489E2,4.783825E2,1.8403937E2,2.5020953E2,2.3846068E2,2.3992184E2,8.389128E0,1.7565025E2,2.2675148E2,2.345806E1,2.4636944E1,2.1382373E2,1.7694528E2,6.297655E1,1.8138341E0,6.575294E0,1.5036549E1,1.606137E2,1.15145515E2,1.1160596E2,2.7732475E0,2.0684813E1,1.4933313E1,9.7036295E0,6.2257667E0,2.0759796E2,9.830285E1,7.864243E1,1.8428396E1,4.4548153E1],"tree_param":{"num_deleted":"0","num_feature":"7","num_nodes":"31","size_leaf_vector":"1"}},{"base_weights":[-6.574879E-3,2.557405E-1,-1.4515151E-1,5.2621156E-1,2.1310225E-1,-8.84554E-2,-3.7150106E-1,7.4409246E-1,3.130727E-1,4.4062477E-1,1.700851E-1,-5.6394175E-2,-2.947197E-1,-2.629831E-1,-4.4179708E-1,4.607259E-2,2.082736E-2,2.0041255E-2,-2.7146518E-2,1.1479258E-2,3.5989083E-2,-4.3966225E-3,1.0469872E-2,-7.1548284E-3,3.196317E-3,2.5054873E-3,-1.7913437E-2,-2.953798E-2,-8.433356E-3,-2.8557604E-2,-1.8338948E-2],"categories":[],"categories_nodes":[],"categories_segments":[],"categories_sizes":[],"default_left":[0,0,0,0,0,0,0,0,0,0,0,0,0,0,0,0,0,0,0,0,0,0,0,0,0,0,0,0,0,0,0],"id":45,"left_children":[1,3,5,7,9,11,13,15,17,19,21,23,25,27,29,-1,-1,-1,-1,-1,-1,-1,-1,-1,-1,-1,-1,